%YAML:1.0
---
opencv_ml_svm:
   format: 3
   svmType: C_SVC
   kernel:
      type: LINEAR
   C: 2.6699999999999999e+00
   term_criteria: { iterations:100 }
   var_count: 64
   class_count: 10
   class_labels: !!opencv-matrix
      rows: 10
      cols: 1
      dt: i
      data: [ 0, 1, 2, 3, 4, 5, 6, 7, 8, 9 ]
   sv_total: 45
   support_vectors:
      - [ -4.01561265e-05, -7.85142311e-06, 0., 0., 3.37105507e-06, 0.,
          2.50438256e-06, 0., -2.08804177e-05, 6.04913294e-05, 0., 0.,
          1.56832266e-05, 0., -3.71455244e-05, 0., -1.17680371e-04,
          -1.48203826e-05, 0., 0., -8.62794536e-07, 0., 1.62395063e-05,
          0., -7.89164260e-05, -1.00736019e-04, 0., 0., 3.80429856e-06,
          0., 5.04792661e-05, 0., 4.54500769e-05, 5.16195105e-05, 0., 0.,
          1.01653386e-05, 0., 2.82112842e-06, 0., 4.29742022e-06,
          2.19171288e-05, 0., 0., 1.00114325e-04, 0., 5.01727336e-05, 0.,
          -7.51956686e-05, 7.72318308e-05, 0., 0., 2.78259540e-05, 0.,
          -5.03161828e-05, 0., -8.69075211e-06, 1.36225844e-05, 0., 0.,
          2.62861358e-05, 0., -8.52081721e-05, 0. ]
      - [ -1.86662437e-05, 3.11002077e-06, 0., 0., -1.48871359e-05, 0.,
          -1.67768903e-05, 0., -3.49158508e-05, 8.85814079e-05, 0., 0.,
          -7.84356598e-05, 0., -1.35558890e-04, 0., -1.79651488e-06,
          -2.25420281e-05, 0., 0., -5.23124909e-05, 0., 2.04087082e-05,
          0., -1.01764177e-04, 2.52255836e-06, 0., 0., 5.69942722e-06,
          0., 1.26952784e-06, 0., -4.27593368e-05, -3.18779894e-05, 0.,
          0., -5.17926928e-05, 0., 2.77859563e-05, 0., -2.94671827e-05,
          -8.55310500e-05, 0., 0., 8.29385172e-05, 0., 1.74203800e-04,
          0., -7.38648523e-05, 4.52369386e-05, 0., 0., 1.65178881e-05,
          0., -3.56351447e-05, 0., -4.26765437e-05, 1.98562957e-05, 0.,
          0., 1.90351511e-05, 0., -1.14080714e-04, 0. ]
      - [ -7.74876753e-06, -3.83547285e-06, 0., 0., 3.25598739e-05, 0.,
          -4.25940598e-05, 0., -5.69844378e-05, 8.31814032e-05, 0., 0.,
          3.67477442e-05, 0., -4.21373115e-05, 0., 6.09605013e-06,
          6.37799712e-06, 0., 0., -7.11556058e-05, 0., 4.78388483e-06,
          0., -8.89492221e-05, 1.88500908e-05, 0., 0., -2.81780649e-05,
          0., -6.93332477e-05, 0., -1.27353051e-04, -2.75180500e-05, 0.,
          0., 2.73802671e-05, 0., 1.89495204e-05, 0., -5.15211614e-05,
          -1.11913578e-04, 0., 0., -5.35582294e-05, 0., 5.87269096e-05,
          0., -2.24872383e-05, 9.68205713e-05, 0., 0., -2.51746897e-05,
          0., -1.37810582e-06, 0., -2.39155343e-05, 2.71734325e-06, 0.,
          0., 1.28626680e-05, 0., -1.45326281e-04, 0. ]
      - [ -2.08388574e-05, -3.25143046e-05, 0., 0., -7.77466903e-06, 0.,
          -7.04271151e-05, 0., -1.94652694e-05, 7.92047649e-05, 0., 0.,
          -3.85330823e-05, 0., -4.34343237e-05, 0., 2.14754964e-05,
          -7.47595732e-06, 0., 0., -6.95364070e-05, 0., 4.87374418e-05,
          0., -8.83508110e-05, -9.78784956e-05, 0., 0., -2.15144864e-05,
          0., -1.95649372e-05, 0., 1.22893825e-05, -1.75389177e-05, 0.,
          0., -1.95256180e-05, 0., -3.75030831e-05, 0., 2.50117773e-05,
          5.22618791e-07, 0., 0., -2.11913048e-05, 0., 8.52194789e-05,
          0., -1.12128560e-04, 9.00665182e-05, 0., 0., -2.92813002e-05,
          0., -2.36734759e-05, 0., 5.73655889e-05, -7.68663667e-05, 0.,
          0., -1.09260218e-04, 0., -1.28323445e-04, 0. ]
      - [ -5.50518234e-05, -1.53869056e-04, 0., 0., -3.14265308e-05, 0.,
          -1.99199781e-06, 0., -8.28551201e-05, 1.65294496e-05, 0., 0.,
          8.89796138e-06, 0., 2.64164419e-06, 0., -3.50588089e-05,
          -7.29203821e-05, 0., 0., 5.21926413e-05, 0., 1.95403318e-05,
          0., -1.02560851e-04, -1.19641882e-04, 0., 0., -5.76401872e-05,
          0., -9.18743081e-06, 0., 1.00158082e-04, -5.85260677e-05, 0.,
          0., 1.63924997e-05, 0., 2.18996365e-06, 0., -2.22964300e-05,
          -3.60815591e-07, 0., 0., 2.50719731e-05, 0., 1.36235076e-05,
          0., -5.46065967e-05, 5.86711067e-05, 0., 0., 2.27652235e-05,
          0., 3.04264213e-05, 0., -5.47536956e-06, -1.00930498e-04, 0.,
          0., -1.24439117e-04, 0., -1.73149150e-04, 0. ]
      - [ -2.17680135e-05, -2.74484846e-05, 0., 0., -2.42415026e-05, 0.,
          -5.60991102e-05, 0., -4.64350014e-05, -2.86335962e-05, 0., 0.,
          -1.59023348e-05, 0., -4.22109370e-05, 0., 7.23654330e-06,
          -3.89820634e-05, 0., 0., -1.49708676e-05, 0., 2.01931434e-05,
          0., 7.05930859e-07, -6.08834080e-06, 0., 0., 6.25270477e-05,
          0., 3.24977441e-06, 0., -3.53951655e-05, -2.11844799e-05, 0.,
          0., -1.74301967e-05, 0., -5.25043220e-07, 0., 2.07649337e-05,
          -8.08642471e-06, 0., 0., 1.10467545e-05, 0., 4.20377182e-05,
          0., -2.97934384e-05, -3.11251142e-06, 0., 0., 6.27462214e-06,
          0., -6.60221122e-05, 0., -2.56834974e-05, -2.03011973e-06, 0.,
          0., -2.37151908e-05, 0., -1.85259196e-05, 0. ]
      - [ -4.36460177e-05, -5.37329197e-06, 0., 0., -1.74792112e-05, 0.,
          -6.84878978e-05, 0., -2.01955827e-05, 9.36330471e-05, 0., 0.,
          -9.72049311e-05, 0., -1.32946749e-04, 0., 3.45770713e-05,
          1.54276113e-05, 0., 0., -7.59922796e-06, 0., 4.07718653e-06,
          0., -6.73478862e-05, 1.64452780e-04, 0., 0., 2.78350435e-05,
          0., -3.62079991e-05, 0., 3.17657905e-05, -6.83140479e-06, 0.,
          0., 5.16045657e-06, 0., 4.97708061e-05, 0., -9.63650527e-05,
          -3.96135511e-05, 0., 0., 7.91176790e-05, 0., 3.24133725e-05,
          0., -4.42769524e-05, -3.80367565e-05, 0., 0., 4.06660220e-05,
          0., -7.86198725e-05, 0., 9.59692807e-06, -7.23636185e-05, 0.,
          0., -1.00526540e-05, 0., 8.40914618e-06, 0. ]
      - [ -1.08193092e-06, 0., 0., 0., -4.32772367e-06, 0.,
          3.27404746e-06, 0., -1.75138157e-05, 6.46327680e-05, 0., 0.,
          5.24586039e-06, 0., -2.29512193e-06, 0., -8.16988450e-06,
          -4.95739878e-05, 0., 0., 3.35577715e-06, 0., 8.74077814e-05,
          0., -1.24130675e-05, -3.66910754e-05, 0., 0., -4.81900497e-06,
          0., 6.30913246e-06, 0., -3.68028668e-05, 1.54189074e-05, 0.,
          0., 1.03181264e-05, 0., -3.23859458e-05, 0., -2.71268400e-05,
          -1.07549604e-05, 0., 0., 3.56921773e-05, 0., 2.08790561e-06,
          0., -1.57664890e-05, 2.79109317e-05, 0., 0., 1.05322069e-05,
          0., -6.42548766e-05, 0., -3.68725341e-05, -2.59836725e-05, 0.,
          0., 4.20458418e-05, 0., -6.00171334e-05, 0. ]
      - [ -2.98727900e-05, -9.85978986e-05, 0., 0., -2.32040275e-05, 0.,
          -8.56895495e-05, 0., -5.42614216e-05, 1.07723485e-04, 0., 0.,
          2.16837689e-05, 0., -7.43554835e-07, 0., -6.74561234e-05,
          6.95598428e-05, 0., 0., -1.18818702e-04, 0., -1.32169234e-05,
          0., 3.70261332e-05, -1.00198049e-04, 0., 0., 1.76163394e-05,
          0., -2.19389972e-06, 0., 2.05587039e-05, -5.84364716e-05, 0.,
          0., 3.21592006e-06, 0., -5.53573554e-05, 0., 6.04217312e-05,
          -6.04166016e-05, 0., 0., 8.20773348e-05, 0., 8.59220308e-05,
          0., -9.06035639e-05, 1.12047303e-04, 0., 0., -6.69033325e-05,
          0., 2.50539033e-05, 0., -6.84712650e-05, -1.59094398e-05, 0.,
          0., -4.29361671e-06, 0., -1.04623774e-04, 0. ]
      - [ -2.87982493e-06, 7.08483469e-07, 0., 0., -2.36167543e-05, 0.,
          -6.59559373e-06, 0., 2.50381145e-05, 6.92311596e-06, 0., 0.,
          -4.89129125e-05, 0., -1.27679050e-05, 0., -4.11809333e-06,
          2.90178687e-05, 0., 0., -1.65087476e-05, 0., -2.93991088e-05,
          0., 4.98163672e-06, 6.09092131e-05, 0., 0., -1.40147968e-05,
          0., -3.43380962e-05, 0., -4.01353791e-05, -7.70675324e-05, 0.,
          0., -5.97463404e-05, 0., -1.96353394e-05, 0., -4.65076155e-05,
          -8.79164581e-05, 0., 0., -4.50183325e-05, 0., 1.23728960e-05,
          0., -2.21769960e-06, -3.76369862e-05, 0., 0., -4.30809414e-05,
          0., -1.22033616e-05, 0., -1.19633642e-05, -4.10049506e-05, 0.,
          0., 2.63766560e-06, 0., 2.03455074e-05, 0. ]
      - [ 9.60245234e-06, -1.21128392e-06, 0., 0., -3.61820867e-06, 0.,
          1.25107681e-05, 0., 3.33593061e-06, -1.25337408e-06, 0., 0.,
          -4.15609284e-05, 0., 1.09780822e-05, 0., 1.02693811e-07,
          1.75352088e-05, 0., 0., -1.97569943e-06, 0., -2.49450404e-05,
          0., 8.48516265e-06, 4.31980261e-05, 0., 0., -9.27459860e-06,
          0., -2.22580620e-05, 0., -5.02852927e-05, -5.69260228e-05, 0.,
          0., -3.70509297e-05, 0., -1.34447864e-05, 0., -4.74485387e-05,
          -6.01331376e-05, 0., 0., -4.39938340e-05, 0., -2.00117356e-05,
          0., 1.12174148e-05, -2.82745550e-05, 0., 0., -4.74770422e-05,
          0., -1.42058543e-05, 0., -5.30847456e-06, -1.09011726e-05, 0.,
          0., 4.74339049e-06, 0., 1.46268303e-05, 0. ]
      - [ 1.54868649e-05, -1.68900151e-05, 0., 0., 4.49420696e-07, 0.,
          7.21201286e-06, 0., 1.76450576e-05, -6.20869250e-05, 0., 0.,
          -7.43429518e-06, 0., 1.89374914e-05, 0., -1.20894783e-05,
          7.75869739e-06, 0., 0., -1.22061977e-07, 0., -2.74108934e-05,
          0., -5.79505286e-06, 2.02805713e-05, 0., 0., -5.20711501e-06,
          0., -2.69468037e-05, 0., -2.08719375e-05, -8.19455236e-05, 0.,
          0., -9.13006297e-05, 0., -1.09580278e-05, 0., -2.50930370e-05,
          -2.74099912e-05, 0., 0., -4.28225940e-05, 0., -1.62622728e-05,
          0., 1.27964076e-05, -8.16999091e-06, 0., 0., -9.26137582e-05,
          0., 1.49967818e-05, 0., -1.50156075e-05, -1.04128167e-05, 0.,
          0., -4.87324978e-05, 0., -5.61873185e-06, 0. ]
      - [ 3.74452720e-05, 2.18571713e-05, 0., 0., -1.56395035e-05, 0.,
          1.73154501e-06, 0., -2.70556411e-05, -1.42396302e-05, 0., 0.,
          2.54483475e-05, 0., -1.87508294e-06, 0., -2.76300689e-05,
          -5.14611520e-06, 0., 0., -2.06476161e-05, 0., -4.01342295e-05,
          0., 1.62745764e-05, -5.94368757e-05, 0., 0., -2.10411463e-06,
          0., 1.66005600e-06, 0., -4.75906236e-05, -4.34524409e-05, 0.,
          0., -5.93919431e-05, 0., -1.82096101e-05, 0., -1.08225968e-05,
          -1.98686666e-05, 0., 0., -6.55678741e-05, 0., -6.63362371e-05,
          0., 7.74239470e-06, -7.93617874e-05, 0., 0., -6.40115177e-05,
          0., 3.30633302e-05, 0., -4.22054436e-05, -4.00227218e-05, 0.,
          0., -9.65213549e-05, 0., -3.22290143e-05, 0. ]
      - [ -3.37849451e-05, -2.84366142e-05, 0., 0., -7.27799779e-05, 0.,
          -1.15650564e-05, 0., -2.01440744e-05, -2.32763978e-05, 0., 0.,
          -1.56243041e-05, 0., -2.91778379e-05, 0., 7.05128241e-06,
          -4.77991125e-06, 0., 0., -1.72542987e-05, 0., 2.99863696e-05,
          0., -4.30448063e-06, 4.29778484e-05, 0., 0., -4.86415001e-06,
          0., -7.01344970e-06, 0., -3.46553898e-05, -1.81709020e-05, 0.,
          0., -4.87201578e-05, 0., -3.24397661e-05, 0., -2.14727934e-05,
          -3.82889848e-05, 0., 0., -9.30859896e-05, 0., 8.14926443e-06,
          0., 1.28948686e-05, -6.45554683e-05, 0., 0., -7.05042912e-05,
          0., -1.74553861e-05, 0., -1.80426159e-05, -6.99236844e-05, 0.,
          0., 1.63192908e-06, 0., 2.12229179e-06, 0. ]
      - [ -1.18586013e-06, -1.12853886e-05, 0., 0., -1.59205010e-05, 0.,
          9.76513547e-06, 0., -1.49367215e-05, 1.15364792e-05, 0., 0.,
          -4.19491880e-06, 0., -2.27306318e-05, 0., 2.86364525e-06,
          2.42147089e-05, 0., 0., -1.62231424e-06, 0., 7.18441879e-06,
          0., 1.99486603e-05, 4.60870542e-05, 0., 0., -1.22342290e-05,
          0., -1.34525799e-05, 0., -6.15485842e-05, -2.96958497e-05, 0.,
          0., -5.60158514e-06, 0., 1.17174441e-05, 0., -7.73882275e-05,
          -8.31987782e-05, 0., 0., -1.75293935e-05, 0., -2.83151403e-05,
          0., -3.93839082e-06, -5.85914822e-05, 0., 0., -3.81223144e-05,
          0., -2.77944600e-05, 0., -9.70173187e-06, -6.74269177e-05, 0.,
          0., -2.26067132e-05, 0., 2.18907317e-05, 0. ]
      - [ 2.73196838e-05, 5.33367456e-05, 0., 0., 2.49601744e-05, 0.,
          5.34629180e-05, 0., -3.26092504e-06, -4.60951997e-05, 0., 0.,
          2.21222253e-05, 0., 1.38279529e-05, 0., 5.25291352e-06,
          -3.88417029e-05, 0., 0., 1.77737354e-06, 0., 2.55024916e-05,
          0., 1.40726308e-06, -3.06702204e-05, 0., 0., -2.91207107e-05,
          0., 3.99462078e-05, 0., -5.67665302e-05, 3.06465590e-05, 0.,
          0., -2.18378027e-05, 0., 3.11957519e-05, 0., -1.94298300e-05,
          -3.29443537e-05, 0., 0., -7.09174356e-06, 0., -8.26375763e-05,
          0., -5.69357644e-06, -2.22167528e-05, 0., 0., -1.09508066e-04,
          0., -9.49132209e-06, 0., -1.07673359e-05, -1.63618479e-05, 0.,
          0., 5.61563138e-06, 0., -2.25225576e-05, 0. ]
      - [ -4.85247001e-05, 2.71237495e-05, 0., 0., -6.59464567e-05, 0.,
          3.38951468e-05, 0., -3.21126718e-05, -6.59973739e-05, 0., 0.,
          -1.93574560e-05, 0., 2.29622783e-05, 0., 4.54770543e-06,
          -4.16425319e-05, 0., 0., -6.86045678e-05, 0., -5.29381305e-06,
          0., 4.90107232e-05, -2.03924901e-05, 0., 0., -1.04593910e-05,
          0., -4.70488376e-05, 0., -6.49479043e-05, 2.26080701e-05, 0.,
          0., -3.69872905e-05, 0., 6.97070618e-06, 0., -2.84561393e-05,
          -4.40311087e-05, 0., 0., -1.86431007e-05, 0., -6.70394584e-05,
          0., 2.51835172e-05, -4.76654941e-06, 0., 0., -6.28770358e-05,
          0., 1.39364238e-06, 0., -3.66208187e-05, -5.47340132e-05, 0.,
          0., 1.32150308e-05, 0., -1.00930820e-05, 0. ]
      - [ -8.58535441e-06, -9.92507648e-06, 0., 0., -7.91178081e-06, 0.,
          2.49054239e-07, 0., 8.46621788e-06, -1.19942533e-05, 0., 0.,
          2.34352910e-06, 0., 3.56708392e-06, 0., 1.29883119e-06,
          1.73709814e-05, 0., 0., -4.31141780e-06, 0., -2.01110970e-06,
          0., 1.11355648e-05, 4.56209818e-06, 0., 0., 1.28641786e-05, 0.,
          -2.56549538e-05, 0., -2.49798504e-05, 3.14482259e-06, 0., 0.,
          1.04844285e-05, 0., -7.83896121e-06, 0., -1.91609233e-05,
          -3.45464759e-05, 0., 0., -2.65934941e-05, 0., -1.85736935e-05,
          0., -2.23357301e-06, 7.60889088e-06, 0., 0., -1.28565816e-05,
          0., -5.10608197e-06, 0., 5.78915774e-07, -3.33004391e-05, 0.,
          0., -4.82542737e-06, 0., -1.72917607e-05, 0. ]
      - [ 9.11500138e-06, -2.25248095e-06, 0., 0., -8.68086317e-06, 0.,
          -8.09072844e-06, 0., 2.98683381e-06, -1.31237302e-05, 0., 0.,
          -9.15114833e-06, 0., 1.86470679e-05, 0., -7.74244199e-06,
          9.92454716e-06, 0., 0., -1.29805030e-05, 0., -6.12691065e-06,
          0., -1.57924460e-05, -4.47493221e-05, 0., 0., 1.62676042e-05,
          0., -1.79309900e-05, 0., 1.86900616e-05, -3.53537107e-05, 0.,
          0., -8.60705768e-06, 0., 2.50789776e-06, 0., 1.10883084e-05,
          1.35396806e-06, 0., 0., 1.70767198e-05, 0., -1.78105001e-05,
          0., 1.77184611e-05, 1.71243209e-05, 0., 0., -4.82218638e-05,
          0., 1.61706666e-05, 0., 2.11919578e-05, 2.23447041e-05, 0., 0.,
          -1.80158786e-05, 0., -2.79508859e-05, 0. ]
      - [ -2.56409385e-05, -2.77326471e-05, 0., 0., -2.07454977e-05, 0.,
          -1.06990456e-05, 0., 3.64585844e-06, -5.56195118e-05, 0., 0.,
          5.41142363e-05, 0., 3.52149982e-05, 0., -4.86851786e-05,
          -4.50621059e-07, 0., 0., 2.43507420e-05, 0., 1.11712470e-05,
          0., 2.25535932e-05, -9.72925845e-05, 0., 0., 1.62614197e-05,
          0., 3.97280273e-05, 0., 2.39065630e-05, 4.66403890e-06, 0., 0.,
          5.15861757e-06, 0., 1.60647087e-05, 0., -3.96903442e-06,
          3.16043588e-05, 0., 0., -1.11033169e-05, 0., -2.88001338e-05,
          0., 1.87123023e-05, 2.63571092e-05, 0., 0., 1.92682874e-05, 0.,
          4.04760758e-05, 0., 1.76648482e-05, -2.13041494e-05, 0., 0.,
          -5.71443670e-05, 0., -3.33184180e-05, 0. ]
      - [ -4.24878854e-05, -1.28340071e-05, 0., 0., -4.63635733e-05, 0.,
          -6.17493060e-06, 0., -2.99604380e-05, -3.59708538e-05, 0., 0.,
          2.52881819e-07, 0., 2.07740613e-05, 0., -1.50824440e-06,
          -1.55099224e-05, 0., 0., 2.89395939e-06, 0., 3.09642528e-05,
          0., 1.49924763e-05, -3.26764857e-05, 0., 0., 2.59781827e-05,
          0., -7.01015836e-07, 0., 7.55176825e-06, -1.76311933e-05, 0.,
          0., 1.88285339e-05, 0., -1.58966996e-05, 0., 2.51391634e-06,
          3.23158347e-05, 0., 0., -1.94993709e-06, 0., -5.44362183e-06,
          0., -2.40982217e-06, -4.53406483e-06, 0., 0., -1.08269414e-05,
          0., -1.80878433e-05, 0., -8.33306785e-06, -1.21339008e-05, 0.,
          0., -2.02077081e-05, 0., 3.76983667e-06, 0. ]
      - [ 1.41598321e-06, -6.71089765e-06, 0., 0., -1.45490094e-06, 0.,
          -1.18464584e-06, 0., -3.11056806e-06, -1.87048863e-05, 0., 0.,
          8.26217615e-07, 0., -1.03318635e-05, 0., -3.56751730e-06,
          6.04729848e-06, 0., 0., -6.14496230e-06, 0., 2.02530282e-05,
          0., -6.46832632e-06, 1.81746836e-05, 0., 0., 9.46603177e-06,
          0., -2.60150755e-05, 0., 5.07854293e-06, -5.77429637e-06, 0.,
          0., 4.34895810e-06, 0., 3.66288732e-05, 0., -2.84394919e-05,
          -5.79430207e-06, 0., 0., -1.08146587e-05, 0., -2.00410723e-05,
          0., -4.53454049e-06, -7.30442389e-06, 0., 0., 2.82393976e-05,
          0., -9.90816170e-06, 0., -3.66485619e-06, -3.25009714e-05, 0.,
          0., -9.40312020e-06, 0., 2.04183543e-05, 0. ]
      - [ 1.02687245e-05, 0., 0., 0., -2.27445817e-05, 0.,
          1.49835987e-05, 0., -3.73508124e-06, -5.25823725e-06, 0., 0.,
          3.29585164e-05, 0., 5.75200320e-05, 0., 2.11114639e-05,
          -5.19628084e-05, 0., 0., 1.08356589e-05, 0., 1.07446962e-04,
          0., -1.50452361e-05, -5.62733512e-05, 0., 0., -4.07001935e-05,
          0., 3.28120295e-05, 0., 1.55372472e-05, 6.78467841e-05, 0., 0.,
          -8.16061129e-06, 0., 1.16507836e-05, 0., 4.86074023e-05,
          3.92293368e-05, 0., 0., 3.27972120e-05, 0., -3.77974357e-05,
          0., 1.23967275e-05, -1.46681277e-05, 0., 0., -2.43911454e-05,
          0., 2.45429965e-06, 0., -3.19486135e-05, 6.57417286e-06, 0.,
          0., 8.91197942e-06, 0., -1.98260586e-05, 0. ]
      - [ -3.65252927e-05, -1.38684927e-05, 0., 0., -3.76221069e-05, 0.,
          -9.77614718e-07, 0., -1.05333111e-05, -7.60185649e-05, 0., 0.,
          2.53807211e-05, 0., 1.17617355e-05, 0., -1.36098897e-05,
          -4.58147879e-05, 0., 0., -4.17724077e-05, 0., 3.59675250e-05,
          0., 4.19495227e-05, -1.05313877e-04, 0., 0., 2.44488419e-05,
          0., -8.19398156e-06, 0., 3.68963920e-05, 7.57069211e-06, 0.,
          0., 2.14634092e-05, 0., 1.46329967e-06, 0., 4.34248286e-05,
          2.54874485e-05, 0., 0., 1.30557391e-05, 0., -9.51852871e-06,
          0., -2.51943402e-06, 3.39774197e-05, 0., 0., -4.04668026e-05,
          0., -6.32482170e-06, 0., -3.30019066e-06, -1.51750664e-05, 0.,
          0., -1.44167634e-05, 0., 6.65382413e-06, 0. ]
      - [ 2.30536371e-05, 7.45468560e-06, 0., 0., 1.52875415e-07, 0.,
          -7.92007813e-06, 0., -1.15156490e-05, 1.24063138e-06, 0., 0.,
          -2.23603706e-06, 0., -1.25231991e-05, 0., 6.72819056e-07,
          -7.20389210e-07, 0., 0., -1.03804645e-08, 0., -4.63446304e-06,
          0., 9.95051232e-06, -2.41221878e-05, 0., 0., 5.13775967e-06,
          0., 1.67161761e-05, 0., 3.27287125e-05, -1.28262163e-05, 0.,
          0., -1.23685932e-05, 0., 7.44878253e-06, 0., 4.59541297e-05,
          1.14582526e-05, 0., 0., 4.30985601e-05, 0., -6.24649985e-08,
          0., 1.28040938e-05, -8.92577100e-06, 0., 0., -2.58527944e-05,
          0., -1.76606034e-06, 0., 1.62610013e-05, 9.32068269e-06, 0.,
          0., -6.06483536e-06, 0., -1.02626027e-05, 0. ]
      - [ 9.70369092e-06, 1.01998703e-05, 0., 0., -2.96814801e-06, 0.,
          9.63080583e-06, 0., 2.30944788e-05, -1.21720532e-05, 0., 0.,
          1.44022997e-05, 0., 3.90251216e-06, 0., -5.31052319e-06,
          -1.59769170e-05, 0., 0., 3.24393586e-05, 0., 3.54212243e-05,
          0., 9.26678058e-06, -5.99988052e-05, 0., 0., 1.28042375e-05,
          0., 1.42061317e-05, 0., 4.87503276e-05, 9.35860589e-06, 0., 0.,
          3.01392356e-06, 0., -1.10553065e-05, 0., 1.14986051e-05,
          2.37994700e-05, 0., 0., 2.99223416e-06, 0., -4.70025188e-05,
          0., 3.02319734e-07, 3.61354637e-06, 0., 0., 3.17787749e-06, 0.,
          1.01608639e-05, 0., -9.03691216e-07, -2.89242271e-05, 0., 0.,
          -1.31073366e-05, 0., -2.62738286e-05, 0. ]
      - [ -2.73264159e-05, -2.43073464e-05, 0., 0., -2.76903720e-05, 0.,
          -1.92738189e-05, 0., -3.66292152e-05, -5.65767259e-05, 0., 0.,
          -1.71657678e-06, 0., 7.48787079e-06, 0., 1.64427979e-06,
          -8.97737846e-06, 0., 0., 1.19458377e-07, 0., 1.97429090e-05,
          0., 1.94672339e-05, -2.74387239e-05, 0., 0., 3.22171072e-05,
          0., 1.41700730e-05, 0., 2.63285565e-05, -2.97558963e-05, 0.,
          0., -1.46387893e-05, 0., 8.70002987e-06, 0., 2.23794486e-05,
          4.27575760e-05, 0., 0., 2.30222777e-05, 0., 3.44140585e-06, 0.,
          -1.12468742e-05, -1.74648721e-05, 0., 0., -5.27195880e-06, 0.,
          -1.40684760e-05, 0., -5.07930054e-06, -1.08906743e-05, 0., 0.,
          1.87851074e-05, 0., 1.35449291e-05, 0. ]
      - [ -1.56114584e-06, -2.70406485e-06, 0., 0., -6.89277795e-06, 0.,
          4.79041501e-06, 0., -3.83549668e-05, 1.34466302e-06, 0., 0.,
          -1.09431321e-05, 0., -3.55216689e-05, 0., -6.48327705e-06,
          2.19223284e-06, 0., 0., -1.31086063e-06, 0., 1.14393779e-05,
          0., 2.01200583e-05, -2.29391003e-06, 0., 0., 1.05543613e-05,
          0., 2.13925159e-05, 0., 4.57516835e-05, 7.54896746e-06, 0., 0.,
          -9.71070403e-06, 0., 4.22927551e-05, 0., -3.00674537e-06,
          3.95167517e-05, 0., 0., 2.20872407e-05, 0., -2.36778669e-06,
          0., 5.02564899e-06, -2.88555548e-05, 0., 0., 6.69853835e-05,
          0., 1.55972994e-05, 0., -2.22343169e-06, -4.40277290e-05, 0.,
          0., 7.34874811e-06, 0., 1.33569183e-05, 0. ]
      - [ 1.55629223e-05, 2.30101705e-06, 0., 0., -1.79209401e-05, 0.,
          8.91279797e-06, 0., 8.89438979e-06, 7.49239507e-06, 0., 0.,
          1.31218667e-05, 0., 1.93384403e-05, 0., 1.63233381e-05,
          -6.81210804e-05, 0., 0., 2.19544327e-05, 0., 8.71938028e-05,
          0., -1.52438843e-05, -3.49372967e-05, 0., 0., -2.46620766e-05,
          0., -1.31631759e-05, 0., 3.99117926e-05, 5.00038841e-05, 0.,
          0., 3.61272532e-06, 0., 1.45320500e-05, 0., 6.84286351e-05,
          4.53134162e-05, 0., 0., 5.41232948e-05, 0., 3.55054872e-05, 0.,
          1.02754011e-05, 1.55476682e-05, 0., 0., 3.07871087e-05, 0.,
          -5.20323874e-06, 0., -6.42590294e-06, -2.54718252e-05, 0., 0.,
          -1.49659883e-07, 0., 1.90560040e-05, 0. ]
      - [ 1.73230057e-06, -1.37238740e-05, 0., 0., -1.34201246e-05, 0.,
          9.47619355e-06, 0., -2.57176580e-05, -3.06920047e-05, 0., 0.,
          8.85471309e-06, 0., -3.05149001e-06, 0., 1.38884379e-05,
          -3.48881040e-05, 0., 0., -3.24722023e-05, 0., 2.93960056e-05,
          0., 2.84830367e-05, -6.15381286e-05, 0., 0., 2.27641194e-05,
          0., -5.76855473e-06, 0., 2.72505367e-05, -1.78728842e-05, 0.,
          0., -1.96165347e-05, 0., -4.06709660e-05, 0., 6.93900001e-05,
          2.01647272e-05, 0., 0., 3.38835853e-05, 0., 1.37002962e-05, 0.,
          -1.31939532e-05, 2.53769053e-06, 0., 0., -2.27855508e-05, 0.,
          -6.76752916e-06, 0., -1.10080919e-05, 1.15210059e-05, 0., 0.,
          -2.20421152e-05, 0., 3.44614782e-05, 0. ]
      - [ -8.07636934e-06, -4.13854332e-06, 0., 0., -7.18567935e-06, 0.,
          7.89338537e-06, 0., -1.82915828e-05, -5.61219986e-06, 0., 0.,
          1.35019654e-05, 0., -2.02783212e-06, 0., -1.29123973e-05,
          -1.16534948e-05, 0., 0., 1.08765025e-05, 0., 1.25943679e-05,
          0., 9.23488528e-07, -2.49721907e-05, 0., 0., 3.42426210e-06,
          0., 1.11949998e-06, 0., 9.28868576e-06, 1.24512435e-05, 0., 0.,
          1.32240257e-05, 0., -4.88919341e-06, 0., -1.09125313e-05,
          1.54229292e-05, 0., 0., -2.30250589e-05, 0., -3.64852749e-05,
          0., 1.18064090e-05, -2.68080362e-06, 0., 0., 8.84320252e-06,
          0., -7.98124165e-06, 0., 9.92289006e-06, -1.82455933e-05, 0.,
          0., -5.39197890e-06, 0., -8.48665604e-06, 0. ]
      - [ -1.97634599e-05, -1.10642177e-05, 0., 0., -1.32942760e-05, 0.,
          7.93553318e-06, 0., -2.10820308e-05, -3.73946750e-06, 0., 0.,
          1.59259741e-06, 0., 1.60114923e-05, 0., -2.11601764e-06,
          -7.21387414e-06, 0., 0., -1.07997503e-05, 0., 1.69531304e-05,
          0., 1.34225354e-06, -7.96514632e-06, 0., 0., 3.99732880e-06,
          0., -4.89759759e-06, 0., 2.86416184e-06, 2.96802591e-06, 0.,
          0., -3.78825939e-06, 0., -6.95597646e-06, 0., 4.94846574e-07,
          1.35244973e-05, 0., 0., -9.84957023e-06, 0., -2.36617348e-06,
          0., -1.05579356e-05, -9.81533776e-06, 0., 0., -2.88131196e-06,
          0., -8.78311312e-06, 0., -1.39952790e-05, -1.09234388e-05, 0.,
          0., 2.21949958e-05, 0., 1.12378466e-05, 0. ]
      - [ 8.46645071e-06, 6.52321205e-07, 0., 0., 3.14246108e-06, 0.,
          1.06166508e-05, 0., 1.11410336e-05, -1.59992887e-05, 0., 0.,
          1.17905938e-05, 0., -5.40206493e-05, 0., 5.40822020e-06,
          2.08784786e-05, 0., 0., 4.70894065e-06, 0., 4.89147578e-06, 0.,
          -2.30309206e-06, 8.81851229e-05, 0., 0., -7.21362494e-06, 0.,
          -1.06235366e-05, 0., 3.28684546e-05, 1.17686577e-05, 0., 0.,
          3.72581781e-05, 0., 6.05455571e-05, 0., -3.05123176e-05,
          -1.02161539e-05, 0., 0., -3.24183966e-05, 0., 6.94921766e-07,
          0., 2.17909983e-05, -3.96716496e-05, 0., 0., 8.38332708e-05,
          0., 1.54597801e-05, 0., -3.26926274e-05, -3.95411626e-05, 0.,
          0., 3.60385566e-05, 0., 1.04550118e-05, 0. ]
      - [ -5.12728320e-06, 1.34128095e-05, 0., 0., -3.38565405e-05, 0.,
          3.32923519e-05, 0., 4.58644854e-06, 4.15173708e-05, 0., 0.,
          2.66017032e-05, 0., 1.63051627e-05, 0., -2.09045102e-05,
          -1.78829578e-05, 0., 0., -2.03975233e-05, 0., 8.71479569e-05,
          0., 1.67212256e-05, -2.09320988e-05, 0., 0., -3.00252759e-05,
          0., 4.42345299e-05, 0., -2.31293852e-05, 1.03774357e-04, 0.,
          0., 5.48746902e-05, 0., 2.44868829e-07, 0., -1.01179139e-05,
          5.11489725e-06, 0., 0., 6.91924288e-06, 0., -2.11845527e-05,
          0., -1.83790598e-05, 1.09498715e-05, 0., 0., -1.26742443e-05,
          0., -2.08432339e-05, 0., -1.93494816e-05, -2.92855439e-05, 0.,
          0., 8.93798006e-06, 0., 3.06241491e-05, 0. ]
      - [ -8.37894549e-06, 4.02462229e-06, 0., 0., -5.91103708e-06, 0.,
          2.62655685e-05, 0., 2.21827340e-05, -1.14363656e-05, 0., 0.,
          1.95582979e-05, 0., 2.08450765e-05, 0., -1.90290248e-05,
          -1.03589646e-05, 0., 0., -5.22697410e-05, 0., 1.64856738e-05,
          0., 2.39017991e-05, -2.47890457e-05, 0., 0., 2.52168866e-05,
          0., -9.77140553e-06, 0., -5.67014422e-06, 4.70255873e-05, 0.,
          0., 2.68910640e-06, 0., -1.76683643e-05, 0., 7.53570248e-06,
          5.20683534e-06, 0., 0., 5.70198063e-06, 0., -7.63098706e-06,
          0., 1.21539433e-05, 7.01392037e-06, 0., 0., -3.11661825e-06,
          0., -3.26700138e-05, 0., -8.33619924e-06, 1.40450702e-05, 0.,
          0., 1.26217146e-05, 0., 1.79240869e-05, 0. ]
      - [ -5.06331162e-06, 6.78491517e-07, 0., 0., -2.52601367e-05, 0.,
          -1.02686918e-05, 0., -2.73190290e-06, 2.87864646e-06, 0., 0.,
          -1.04908850e-05, 0., 1.28574984e-05, 0., 7.90666127e-06,
          5.95111533e-06, 0., 0., -3.19991923e-05, 0., -2.89239097e-06,
          0., -3.42164844e-06, 4.96570738e-06, 0., 0., 3.98459360e-06,
          0., -1.02751128e-05, 0., -1.69924369e-05, 1.13498463e-05, 0.,
          0., -6.76231912e-06, 0., -6.93430411e-06, 0., 1.96772598e-05,
          4.58657223e-06, 0., 0., 1.06577590e-05, 0., 2.05322740e-05, 0.,
          -8.42390648e-07, -2.26287102e-05, 0., 0., -1.60870732e-05, 0.,
          -3.99972487e-06, 0., 8.13582301e-06, 1.04977789e-06, 0., 0.,
          1.20248515e-05, 0., 2.27525543e-05, 0. ]
      - [ 1.78069204e-05, -2.83584814e-06, 0., 0., -2.37598374e-06, 0.,
          1.35391906e-06, 0., 9.79094239e-06, 1.04507144e-05, 0., 0.,
          -1.88263402e-05, 0., -3.19096471e-05, 0., 1.49314046e-05,
          2.31627691e-05, 0., 0., 1.03506181e-05, 0., -1.20361592e-05,
          0., -1.44330318e-06, 8.74035686e-05, 0., 0., -1.77821385e-05,
          0., -1.74390316e-05, 0., 3.34135939e-06, -1.21096309e-06, 0.,
          0., 2.19802223e-05, 0., 4.68344151e-05, 0., -9.08993570e-06,
          -4.61155978e-05, 0., 0., 1.34230659e-05, 0., 1.95630928e-05,
          0., 1.93056458e-05, -9.67545111e-06, 0., 0., 4.05084256e-06,
          0., -1.40105267e-05, 0., -1.60335239e-05, 1.02747135e-05, 0.,
          0., 6.16003526e-05, 0., 2.44886382e-06, 0. ]
      - [ -1.12517528e-05, -6.69645897e-06, 0., 0., 9.15713997e-07, 0.,
          9.68776021e-06, 0., 6.46927720e-06, 1.32893604e-07, 0., 0.,
          -2.57731085e-06, 0., 1.59548563e-05, 0., -1.27864887e-05,
          -2.35402490e-06, 0., 0., 9.39850088e-06, 0., 5.40095461e-05,
          0., 7.76761044e-06, 9.31525847e-06, 0., 0., -1.58980674e-05,
          0., 2.58716482e-05, 0., -1.12877251e-05, 3.03761317e-05, 0.,
          0., 1.25194274e-05, 0., 4.07828375e-05, 0., 9.42891802e-06,
          -5.29869503e-05, 0., 0., 4.38317293e-05, 0., 1.23410982e-05,
          0., 1.48616700e-05, 1.57717222e-05, 0., 0., -1.90686260e-05,
          0., -3.36394842e-05, 0., 1.90792753e-06, 1.85914887e-05, 0.,
          0., 3.57180979e-05, 0., 1.97359896e-05, 0. ]
      - [ -2.09740961e-06, 4.64030848e-07, 0., 0., 4.67134669e-06, 0.,
          9.97352799e-06, 0., 4.86959834e-06, -2.89700529e-05, 0., 0.,
          -7.94992047e-06, 0., 1.55030666e-05, 0., 7.66247376e-06,
          1.07801297e-05, 0., 0., -6.90051820e-05, 0., -6.07540005e-06,
          0., 1.30703238e-05, 2.77511435e-06, 0., 0., -6.84494853e-06,
          0., -1.85057834e-05, 0., -2.14764532e-05, 1.49339613e-07, 0.,
          0., 1.19225106e-05, 0., -5.73534726e-06, 0., 2.91834676e-05,
          -3.75135569e-05, 0., 0., 9.73350234e-06, 0., 3.13491387e-06,
          0., -7.93300205e-06, -1.96859833e-06, 0., 0., -1.64609519e-05,
          0., -1.43299940e-05, 0., -5.49650713e-06, 6.02655928e-06, 0.,
          0., 1.65131460e-05, 0., 9.18410660e-06, 0. ]
      - [ 2.34926010e-05, 2.07255871e-05, 0., 0., 3.48041976e-05, 0.,
          6.52831341e-06, 0., 8.45333216e-06, 2.48934284e-05, 0., 0.,
          6.20758510e-06, 0., -3.09695060e-05, 0., 1.31681536e-05,
          6.38815709e-06, 0., 0., 4.17715055e-05, 0., -2.70197302e-06,
          0., -9.94211132e-06, 5.75227605e-05, 0., 0., -7.61699721e-06,
          0., -8.53336769e-06, 0., 2.02144493e-05, -9.47863282e-06, 0.,
          0., 1.47342707e-05, 0., 5.20609974e-05, 0., -2.49913501e-05,
          -2.81977227e-05, 0., 0., -2.05751621e-06, 0., -1.01918286e-05,
          0., 2.28863701e-05, -1.08046943e-05, 0., 0., 2.86874656e-05,
          0., -8.31736997e-06, 0., -5.19161631e-06, 3.97339227e-06, 0.,
          0., 1.25875467e-05, 0., -8.96440088e-06, 0. ]
      - [ 3.03103661e-05, 2.29423385e-05, 0., 0., 1.98962116e-05, 0.,
          3.37475867e-05, 0., 8.26655651e-06, 7.26421649e-06, 0., 0.,
          6.27234749e-06, 0., 1.58318710e-06, 0., -9.32467265e-06,
          -3.36348894e-05, 0., 0., 1.69368250e-05, 0., 5.20873255e-05,
          0., 4.90860566e-06, -4.70220002e-05, 0., 0., -4.25517610e-05,
          0., 1.65802667e-05, 0., -1.73506669e-05, 3.29276008e-05, 0.,
          0., 3.69349254e-05, 0., 3.37703968e-05, 0., -3.01887007e-06,
          -2.22328617e-05, 0., 0., 4.86586687e-05, 0., -1.58102102e-05,
          0., -8.12642520e-06, 2.09996106e-05, 0., 0., -1.12530424e-05,
          0., -7.93883316e-07, 0., -9.91581874e-06, -1.33400572e-05, 0.,
          0., 1.67318940e-05, 0., 4.58471641e-06, 0. ]
      - [ 1.70857274e-05, 1.55491070e-05, 0., 0., 3.07477821e-05, 0.,
          1.14945215e-05, 0., 2.29973211e-05, -9.50849881e-06, 0., 0.,
          1.85903064e-05, 0., -2.35199286e-06, 0., 1.39315455e-06,
          -1.89388675e-06, 0., 0., -3.93438204e-05, 0., -1.40412103e-05,
          0., 6.51206074e-06, -2.91779415e-05, 0., 0., -2.02447663e-05,
          0., 1.20878872e-06, 0., -1.55742346e-05, -2.96327062e-06, 0.,
          0., 1.39632266e-05, 0., -1.69788182e-05, 0., -7.58074839e-06,
          -1.45707154e-05, 0., 0., 1.45621220e-06, 0., -2.01326056e-05,
          0., -1.74179295e-05, 8.14399846e-06, 0., 0., 1.32830201e-06,
          0., 1.43160032e-05, 0., -5.17991020e-06, 5.75367039e-07, 0.,
          0., 1.03441653e-06, 0., -1.12402749e-05, 0. ]
      - [ 3.93753407e-06, 1.60752734e-05, 0., 0., 7.61114279e-06, 0.,
          2.81830071e-05, 0., 1.46193406e-05, 3.65733570e-07, 0., 0.,
          1.75324622e-05, 0., 2.98684572e-05, 0., 5.50177504e-07,
          -4.12849367e-05, 0., 0., -4.24969840e-05, 0., 6.27995396e-05,
          0., -1.09990879e-05, -6.97760552e-05, 0., 0., -3.52059396e-05,
          0., 3.82826074e-05, 0., -3.41727355e-05, 6.58578356e-05, 0.,
          0., 4.97542806e-06, 0., -2.12575924e-05, 0., 2.11719307e-05,
          1.09719358e-05, 0., 0., 1.91999225e-05, 0., -1.62957804e-07,
          0., -1.50368560e-05, 1.09220073e-05, 0., 0., -4.75181732e-05,
          0., -1.84507335e-05, 0., 9.63585899e-06, 1.55664620e-05, 0.,
          0., 1.50858741e-05, 0., 7.78893082e-07, 0. ]
      - [ -8.81895539e-06, 1.18228099e-05, 0., 0., -8.56294446e-06, 0.,
          3.11040048e-06, 0., -3.08405248e-07, -4.19186435e-05, 0., 0.,
          -8.60429918e-06, 0., 2.96806156e-05, 0., -1.28435004e-05,
          -1.92400912e-05, 0., 0., -6.91418609e-05, 0., -8.89825060e-06,
          0., 2.48818596e-05, -6.86438070e-05, 0., 0., -2.55944860e-06,
          0., 6.47149682e-06, 0., -1.68748466e-05, 1.78989849e-05, 0.,
          0., -1.86650286e-05, 0., -4.96093089e-05, 0., 7.24452038e-05,
          1.66185018e-05, 0., 0., 1.70251406e-05, 0., 7.15191618e-06, 0.,
          -2.81690814e-06, 2.72317247e-05, 0., 0., -6.39300197e-05, 0.,
          1.83172961e-06, 0., 2.22354493e-06, 1.57256782e-05, 0., 0.,
          -1.26892664e-05, 0., -1.39678068e-05, 0. ]
      - [ -1.34304237e-05, -7.65810364e-06, 0., 0., -4.64772938e-06, 0.,
          -3.58270736e-05, 0., -5.34728724e-06, -3.27856105e-05, 0., 0.,
          5.89738465e-06, 0., -6.69030260e-06, 0., 1.50039623e-05,
          1.14485947e-05, 0., 0., -3.65708511e-05, 0., -6.61073791e-05,
          0., 1.87383757e-05, -1.06121724e-05, 0., 0., -9.95246864e-07,
          0., -5.19705281e-05, 0., -4.77659023e-06, -2.76165792e-05, 0.,
          0., -3.41287814e-05, 0., -8.83798384e-06, 0., 2.59637309e-05,
          -1.38087689e-05, 0., 0., 2.12730015e-06, 0., 5.61020352e-06,
          0., -9.64896662e-06, 1.17606378e-05, 0., 0., 1.31891886e-06,
          0., -3.48776712e-06, 0., 2.03356594e-05, 2.45792580e-06, 0.,
          0., -8.68571806e-06, 0., -1.30215631e-06, 0. ]
   uncompressed_sv_total: 692
   uncompressed_support_vectors:
      - [ 765., 1.08187329e+03, 0., 0., 0., 0., 0., 0., 3825.,
          1.29824805e+04, 0., 0., 2295., 0., 0., 0., 0., 0., 0., 0., 0.,
          0., 3.24562012e+03, 0., 2295., 0., 0., 0., 0., 0., 0., 0.,
          9180., 5.40936670e+03, 0., 0., 765., 0., 0., 0., 2295.,
          2.16374658e+03, 0., 0., 2295., 0., 3.24562012e+03, 0., 1530.,
          4.32749316e+03, 0., 0., 765., 0., 0., 0., 0., 0., 0., 0., 0.,
          0., 0., 0. ]
      - [ 0., 0., 0., 0., 0., 0., 1.08187329e+03, 0., 6885.,
          7.57311328e+03, 0., 0., 0., 0., 0., 0., 0., 4.32749316e+03, 0.,
          0., 3060., 0., 2.16374658e+03, 0., 5355., 6.49124023e+03, 0.,
          0., 1530., 0., 0., 0., 8415., 6.49124023e+03, 0., 0., 0., 0.,
          0., 0., 1530., 1.08187329e+03, 0., 0., 0., 0., 3.24562012e+03,
          0., 8415., 0., 0., 0., 765., 0., 3.24562012e+03, 0., 1530., 0.,
          0., 0., 5355., 0., 5.40936670e+03, 0. ]
      - [ 765., 2.16374658e+03, 0., 0., 3060., 0., 4.32749316e+03, 0.,
          11475., 3.24562012e+03, 0., 0., 2295., 0., 0., 0., 0., 0., 0.,
          0., 0., 0., 0., 0., 0., 0., 0., 0., 0., 0., 0., 0., 8415.,
          7.57311328e+03, 0., 0., 0., 0., 0., 0., 0., 0., 0., 0., 0., 0.,
          1.08187329e+03, 0., 0., 0., 0., 0., 0., 0., 0., 0., 0., 0., 0.,
          0., 0., 0., 0., 0. ]
      - [ 3060., 2.16374658e+03, 0., 0., 4590., 0., 5.40936670e+03, 0.,
          10710., 4.32749316e+03, 0., 0., 765., 0., 0., 0., 0., 0., 0.,
          0., 0., 0., 0., 0., 0., 0., 0., 0., 0., 0., 0., 0., 11475.,
          4.32749316e+03, 0., 0., 0., 0., 0., 0., 2295., 0., 0., 0., 0.,
          0., 1.08187329e+03, 0., 0., 0., 0., 0., 0., 0., 0., 0., 0., 0.,
          0., 0., 0., 0., 0., 0. ]
      - [ 11475., 4.32749316e+03, 0., 0., 0., 0., 2.16374658e+03, 0.,
          11475., 4.32749316e+03, 0., 0., 765., 0., 1.08187329e+03, 0.,
          3060., 0., 0., 0., 2295., 0., 7.57311328e+03, 0., 3825.,
          1.08187329e+03, 0., 0., 2295., 0., 2.16374658e+03, 0., 3825.,
          0., 0., 0., 4590., 0., 2.16374658e+03, 0., 2295.,
          4.32749316e+03, 0., 0., 4590., 0., 5.40936670e+03, 0., 6885.,
          5.40936670e+03, 0., 0., 1530., 0., 0., 0., 2295.,
          4.32749316e+03, 0., 0., 3825., 0., 0., 0. ]
      - [ 3060., 5.40936670e+03, 0., 0., 765., 0., 2.16374658e+03, 0.,
          9945., 5.40936670e+03, 0., 0., 765., 0., 5.40936670e+03, 0.,
          0., 0., 0., 0., 2295., 0., 9.73686035e+03, 0., 3825., 0., 0.,
          0., 0., 0., 1.08187329e+03, 0., 5355., 2.16374658e+03, 0., 0.,
          18360., 0., 3.24562012e+03, 0., 3825., 5.40936670e+03, 0., 0.,
          13005., 0., 1.08187334e+04, 0., 8415., 9.73686035e+03, 0., 0.,
          6885., 0., 4.32749316e+03, 0., 5355., 5.40936670e+03, 0., 0.,
          9180., 0., 9.73686035e+03, 0. ]
      - [ 4590., 2.16374658e+03, 0., 0., 1530., 0., 0., 0., 9945.,
          7.57311328e+03, 0., 0., 765., 0., 0., 0., 3825., 0., 0., 0.,
          765., 0., 1.19006064e+04, 0., 7650., 0., 0., 0., 0., 0.,
          4.32749316e+03, 0., 3825., 5.40936670e+03, 0., 0., 13770., 0.,
          6.49124023e+03, 0., 3060., 2.16374658e+03, 0., 0., 13005., 0.,
          1.51462266e+04, 0., 9945., 1.08187334e+04, 0., 0., 2295., 0.,
          1.08187329e+03, 0., 6120., 6.49124023e+03, 0., 0., 13770., 0.,
          4.32749316e+03, 0. ]
      - [ 765., 2.16374658e+03, 0., 0., 0., 0., 0., 0., 6885.,
          7.57311328e+03, 0., 0., 4590., 0., 1.08187329e+03, 0., 5355.,
          2.16374658e+03, 0., 0., 3060., 0., 1.08187334e+04, 0., 11475.,
          0., 0., 0., 0., 0., 4.32749316e+03, 0., 11475., 7.57311328e+03,
          0., 0., 16065., 0., 7.57311328e+03, 0., 4590., 5.40936670e+03,
          0., 0., 15300., 0., 8.65498633e+03, 0., 6885., 2.05555938e+04,
          0., 0., 6120., 0., 1.08187329e+03, 0., 3060., 1.73099727e+04,
          0., 0., 10710., 0., 5.40936670e+03, 0. ]
      - [ 0., 1.08187329e+03, 0., 0., 8415., 0., 2.16374658e+03, 0.,
          1530., 5.40936670e+03, 0., 0., 3825., 0., 0., 0., 0., 0., 0.,
          0., 0., 0., 0., 0., 0., 0., 0., 0., 0., 0., 0., 0., 13005.,
          8.65498633e+03, 0., 0., 21420., 0., 2.16374658e+03, 0., 11475.,
          6.49124023e+03, 0., 0., 31365., 0., 6.49124023e+03, 0., 1530.,
          1.08187334e+04, 0., 0., 16065., 0., 6.49124023e+03, 0., 4590.,
          0., 0., 0., 3060., 0., 0., 0. ]
      - [ 0., 3.24562012e+03, 0., 0., 0., 0., 0., 0., 4590.,
          1.19006064e+04, 0., 0., 1530., 0., 0., 0., 10710.,
          1.08187329e+03, 0., 0., 2295., 0., 9.73686035e+03, 0., 16065.,
          1.08187329e+03, 0., 0., 0., 0., 4.32749316e+03, 0., 9945.,
          3.24562012e+03, 0., 0., 13770., 0., 8.65498633e+03, 0., 3060.,
          1.08187329e+03, 0., 0., 3825., 0., 1.19006064e+04, 0., 13005.,
          1.62281006e+04, 0., 0., 3060., 0., 1.08187329e+03, 0., 8415.,
          1.19006064e+04, 0., 0., 12240., 0., 3.24562012e+03, 0. ]
      - [ 3060., 4.32749316e+03, 0., 0., 1530., 0., 0., 0., 9945.,
          8.65498633e+03, 0., 0., 3060., 0., 1.08187329e+03, 0., 1530.,
          0., 0., 0., 2295., 0., 3.24562012e+03, 0., 3825., 0., 0., 0.,
          0., 0., 0., 0., 10710., 6.49124023e+03, 0., 0., 2295., 0.,
          1.08187329e+03, 0., 3060., 4.32749316e+03, 0., 0., 0., 0.,
          1.08187329e+03, 0., 1530., 4.32749316e+03, 0., 0., 765., 0.,
          0., 0., 0., 0., 0., 0., 0., 0., 0., 0. ]
      - [ 765., 2.16374658e+03, 0., 0., 0., 0., 0., 0., 2295.,
          1.29824805e+04, 0., 0., 1530., 0., 0., 0., 11475.,
          1.08187329e+03, 0., 0., 765., 0., 1.19006064e+04, 0., 16065.,
          0., 0., 0., 0., 0., 3.24562012e+03, 0., 15300., 7.57311328e+03,
          0., 0., 4590., 0., 5.40936670e+03, 0., 9180., 3.24562012e+03,
          0., 0., 1530., 0., 5.40936670e+03, 0., 18360., 1.62281006e+04,
          0., 0., 3825., 0., 0., 0., 13770., 1.19006064e+04, 0., 0.,
          3060., 0., 3.24562012e+03, 0. ]
      - [ 0., 0., 0., 0., 0., 0., 0., 0., 765., 4.32749316e+03, 0., 0.,
          1530., 0., 0., 0., 3825., 0., 0., 0., 1530., 0.,
          1.29824805e+04, 0., 14535., 6.49124023e+03, 0., 0., 1530., 0.,
          0., 0., 2295., 0., 0., 0., 0., 0., 0., 0., 0., 9.73686035e+03,
          0., 0., 18360., 0., 1.19006064e+04, 0., 16830., 3.02924531e+04,
          0., 0., 32130., 0., 5.40936670e+03, 0., 10710., 8.65498633e+03,
          0., 0., 10710., 0., 9.73686035e+03, 0. ]
      - [ 3060., 0., 0., 0., 3060., 0., 0., 0., 5355., 1.19006064e+04,
          0., 0., 1530., 0., 1.08187329e+03, 0., 0., 0., 0., 0., 3060.,
          0., 1.08187334e+04, 0., 3060., 0., 0., 0., 765., 0.,
          2.16374658e+03, 0., 9180., 3.24562012e+03, 0., 0., 3060., 0.,
          5.40936670e+03, 0., 4590., 0., 0., 0., 3825., 0.,
          9.73686035e+03, 0., 15300., 8.65498633e+03, 0., 0., 11475., 0.,
          4.32749316e+03, 0., 13005., 0., 0., 0., 25245., 0.,
          5.40936670e+03, 0. ]
      - [ 1530., 0., 0., 0., 0., 0., 7.57311328e+03, 0., 9180.,
          1.08187329e+03, 0., 0., 2295., 0., 1.08187329e+03, 0., 0., 0.,
          0., 0., 1530., 0., 5.40936670e+03, 0., 0., 0., 0., 0., 0., 0.,
          0., 0., 7650., 0., 0., 0., 0., 0., 0., 0., 0., 0., 0., 0., 0.,
          0., 7.57311328e+03, 0., 3825., 1.08187329e+03, 0., 0., 765.,
          0., 1.08187329e+03, 0., 765., 0., 0., 0., 0., 0.,
          1.08187329e+03, 0. ]
      - [ 15300., 0., 0., 0., 0., 0., 1.08187329e+03, 0., 9180.,
          7.57311328e+03, 0., 0., 0., 0., 0., 0., 3825., 1.08187329e+03,
          0., 0., 765., 0., 3.24562012e+03, 0., 2295., 0., 0., 0., 0.,
          0., 0., 0., 0., 0., 0., 0., 0., 0., 0., 0., 0., 0., 0., 0., 0.,
          0., 0., 0., 0., 0., 0., 0., 0., 0., 0., 0., 0., 0., 0., 0., 0.,
          0., 0., 0. ]
      - [ 6120., 4.32749316e+03, 0., 0., 3825., 0., 4.32749316e+03, 0.,
          13005., 6.49124023e+03, 0., 0., 3060., 0., 0., 0., 3825.,
          4.32749316e+03, 0., 0., 765., 0., 5.40936670e+03, 0., 11475.,
          2.16374658e+03, 0., 0., 2295., 0., 3.24562012e+03, 0., 4590.,
          0., 0., 0., 2295., 0., 3.24562012e+03, 0., 765., 0., 0., 0.,
          0., 0., 1.40643535e+04, 0., 13005., 5.40936670e+03, 0., 0.,
          3060., 0., 2.16374658e+03, 0., 2295., 7.57311328e+03, 0., 0.,
          2295., 0., 0., 0. ]
      - [ 3825., 5.40936670e+03, 0., 0., 0., 0., 4.32749316e+03, 0.,
          6885., 5.40936670e+03, 0., 0., 3825., 0., 4.32749316e+03, 0.,
          0., 0., 0., 0., 2295., 0., 3.24562012e+03, 0., 2295., 0., 0.,
          0., 0., 0., 0., 0., 8415., 7.57311328e+03, 0., 0., 6120., 0.,
          5.40936670e+03, 0., 6885., 8.65498633e+03, 0., 0., 15300., 0.,
          8.65498633e+03, 0., 2295., 3.24562012e+03, 0., 0., 765., 0.,
          0., 0., 0., 0., 0., 0., 0., 0., 0., 0. ]
      - [ 2295., 1.08187329e+03, 0., 0., 1530., 0., 1.08187329e+03, 0.,
          4590., 9.73686035e+03, 0., 0., 2295., 0., 0., 0., 5355., 0.,
          0., 0., 1530., 0., 1.40643535e+04, 0., 6120., 1.08187329e+03,
          0., 0., 765., 0., 5.40936670e+03, 0., 13005., 1.19006064e+04,
          0., 0., 13770., 0., 5.40936670e+03, 0., 8415., 5.40936670e+03,
          0., 0., 7650., 0., 5.40936670e+03, 0., 11475., 1.19006064e+04,
          0., 0., 5355., 0., 3.24562012e+03, 0., 8415., 8.65498633e+03,
          0., 0., 16065., 0., 6.49124023e+03, 0. ]
      - [ 0., 0., 0., 0., 0., 0., 0., 0., 0., 1.08187329e+03, 0., 0., 0.,
          0., 0., 0., 0., 2.16374658e+03, 0., 0., 5355., 0.,
          4.32749316e+03, 0., 15300., 1.08187334e+04, 0., 0., 1530., 0.,
          0., 0., 5355., 4.32749316e+03, 0., 0., 7650., 0.,
          1.08187329e+03, 0., 2295., 1.40643535e+04, 0., 0., 19890., 0.,
          7.57311328e+03, 0., 24480., 4.21930625e+04, 0., 0., 10710., 0.,
          3.24562012e+03, 0., 21420., 1.62281006e+04, 0., 0., 2295., 0.,
          7.57311328e+03, 0. ]
      - [ 6120., 3.24562012e+03, 0., 0., 0., 0., 4.32749316e+03, 0.,
          10710., 0., 0., 0., 0., 0., 5.40936670e+03, 0., 0., 0., 0., 0.,
          0., 0., 0., 0., 0., 0., 0., 0., 0., 0., 0., 0., 1530., 0., 0.,
          0., 0., 0., 0., 0., 0., 0., 0., 0., 0., 0., 0., 0., 0., 0., 0.,
          0., 0., 0., 0., 0., 0., 0., 0., 0., 0., 0., 0., 0. ]
      - [ 1530., 2.16374658e+03, 0., 0., 0., 0., 0., 0., 6120.,
          1.19006064e+04, 0., 0., 0., 0., 0., 0., 13005., 2.16374658e+03,
          0., 0., 765., 0., 1.08187334e+04, 0., 18360., 1.08187329e+03,
          0., 0., 0., 0., 4.32749316e+03, 0., 9180., 7.57311328e+03, 0.,
          0., 4590., 0., 5.40936670e+03, 0., 4590., 0., 0., 0., 765., 0.,
          7.57311328e+03, 0., 13005., 2.05555938e+04, 0., 0., 0., 0., 0.,
          0., 9180., 1.40643535e+04, 0., 0., 1530., 0., 1.08187329e+03,
          0. ]
      - [ 0., 0., 0., 0., 0., 0., 0., 0., 2295., 1.19006064e+04, 0., 0.,
          765., 0., 0., 0., 1530., 1.08187329e+03, 0., 0., 0., 0.,
          1.51462266e+04, 0., 8415., 2.16374658e+03, 0., 0., 0., 0.,
          1.08187329e+03, 0., 8415., 3.24562012e+03, 0., 0., 9945., 0.,
          4.32749316e+03, 0., 3825., 4.32749316e+03, 0., 0., 9180., 0.,
          1.40643535e+04, 0., 17595., 1.83918477e+04, 0., 0., 12240., 0.,
          1.08187334e+04, 0., 14535., 6.49124023e+03, 0., 0., 4590., 0.,
          1.94737207e+04, 0. ]
      - [ 6120., 1.08187329e+03, 0., 0., 2295., 0., 0., 0., 8415.,
          9.73686035e+03, 0., 0., 2295., 0., 1.08187329e+03, 0., 0., 0.,
          0., 0., 6885., 0., 5.40936670e+03, 0., 3825., 0., 0., 0.,
          1530., 0., 0., 0., 11475., 3.24562012e+03, 0., 0., 3825., 0.,
          3.24562012e+03, 0., 4590., 3.24562012e+03, 0., 0., 1530., 0.,
          4.32749316e+03, 0., 9945., 1.08187329e+03, 0., 0., 8415., 0.,
          2.16374658e+03, 0., 1530., 1.08187329e+03, 0., 0., 2295., 0.,
          1.08187329e+03, 0. ]
      - [ 1530., 0., 0., 0., 0., 0., 0., 0., 3825., 1.29824805e+04, 0.,
          0., 1530., 0., 0., 0., 0., 0., 0., 0., 4590., 0.,
          1.19006064e+04, 0., 11475., 3.24562012e+03, 0., 0., 0., 0., 0.,
          0., 4590., 3.24562012e+03, 0., 0., 3060., 0., 6.49124023e+03,
          0., 2295., 1.08187329e+03, 0., 0., 3060., 0., 1.73099727e+04,
          0., 19890., 9.73686035e+03, 0., 0., 4590., 0., 2.16374658e+03,
          0., 11475., 0., 0., 0., 1530., 0., 1.19006064e+04, 0. ]
      - [ 0., 0., 0., 0., 0., 0., 0., 0., 0., 7.57311328e+03, 0., 0., 0.,
          0., 0., 0., 2295., 0., 0., 0., 0., 0., 1.40643535e+04, 0.,
          11475., 7.57311328e+03, 0., 0., 0., 0., 0., 0., 10710.,
          1.19006064e+04, 0., 0., 7650., 0., 1.08187329e+03, 0., 6120.,
          1.51462266e+04, 0., 0., 3825., 0., 5.40936670e+03, 0., 19125.,
          2.38012129e+04, 0., 0., 2295., 0., 0., 0., 3825.,
          1.51462266e+04, 0., 0., 4590., 0., 4.32749316e+03, 0. ]
      - [ 0., 0., 0., 0., 0., 0., 0., 0., 0., 7.57311328e+03, 0., 0.,
          1530., 0., 0., 0., 6120., 4.32749316e+03, 0., 0., 765., 0.,
          5.40936670e+03, 0., 15300., 5.40936670e+03, 0., 0., 2295., 0.,
          1.08187329e+03, 0., 11475., 8.65498633e+03, 0., 0., 5355., 0.,
          1.08187329e+03, 0., 6885., 1.19006064e+04, 0., 0., 5355., 0.,
          5.40936670e+03, 0., 9180., 2.81287070e+04, 0., 0., 9180., 0.,
          0., 0., 4590., 1.62281006e+04, 0., 0., 8415., 0., 0., 0. ]
      - [ 765., 2.16374658e+03, 0., 0., 0., 0., 0., 0., 5355.,
          1.08187334e+04, 0., 0., 1530., 0., 0., 0., 6885., 0., 0., 0.,
          3825., 0., 6.49124023e+03, 0., 9945., 1.08187329e+03, 0., 0.,
          765., 0., 1.08187329e+03, 0., 8415., 1.19006064e+04, 0., 0.,
          7650., 0., 2.16374658e+03, 0., 6120., 3.24562012e+03, 0., 0.,
          3060., 0., 5.40936670e+03, 0., 10710., 9.73686035e+03, 0., 0.,
          10710., 0., 4.32749316e+03, 0., 4590., 6.49124023e+03, 0., 0.,
          13770., 0., 3.24562012e+03, 0. ]
      - [ 765., 0., 0., 0., 0., 0., 0., 0., 11475., 5.40936670e+03, 0.,
          0., 765., 0., 0., 0., 8415., 6.49124023e+03, 0., 0., 0., 0.,
          3.24562012e+03, 0., 14535., 0., 0., 0., 0., 0., 2.16374658e+03,
          0., 11475., 1.08187329e+03, 0., 0., 0., 0., 0., 0., 0., 0., 0.,
          0., 0., 0., 3.24562012e+03, 0., 0., 3.24562012e+03, 0., 0., 0.,
          0., 0., 0., 0., 0., 0., 0., 0., 0., 0., 0. ]
      - [ 1530., 0., 0., 0., 0., 0., 3.24562012e+03, 0., 12240.,
          1.08187329e+03, 0., 0., 765., 0., 2.16374658e+03, 0., 0., 0.,
          0., 0., 765., 0., 7.57311328e+03, 0., 15300., 0., 0., 0., 0.,
          0., 0., 0., 5355., 4.32749316e+03, 0., 0., 0., 0., 0., 0., 0.,
          0., 0., 0., 5355., 0., 5.40936670e+03, 0., 15300.,
          5.40936670e+03, 0., 0., 765., 0., 0., 0., 0., 0., 0., 0., 0.,
          0., 2.16374658e+03, 0. ]
      - [ 0., 0., 0., 0., 0., 0., 0., 0., 1530., 8.65498633e+03, 0., 0.,
          2295., 0., 0., 0., 6120., 1.08187329e+03, 0., 0., 0., 0.,
          1.51462266e+04, 0., 12240., 3.24562012e+03, 0., 0., 0., 0.,
          1.08187329e+03, 0., 6885., 0., 0., 0., 3060., 0., 0., 0.,
          3060., 8.65498633e+03, 0., 0., 8415., 0., 1.40643535e+04, 0.,
          22185., 2.16374668e+04, 0., 0., 14535., 0., 2.27193398e+04, 0.,
          13005., 3.24562012e+03, 0., 0., 10710., 0., 1.62281006e+04, 0. ]
      - [ 2295., 0., 0., 0., 1530., 0., 2.16374658e+03, 0., 9180.,
          9.73686035e+03, 0., 0., 0., 0., 1.08187329e+03, 0., 14535.,
          6.49124023e+03, 0., 0., 0., 0., 1.08187334e+04, 0., 18360.,
          6.49124023e+03, 0., 0., 1530., 0., 1.08187329e+03, 0., 8415.,
          1.08187329e+03, 0., 0., 0., 0., 0., 0., 765., 0., 0., 0.,
          3825., 0., 8.65498633e+03, 0., 765., 1.51462266e+04, 0., 0.,
          3060., 0., 0., 0., 765., 0., 0., 0., 0., 0., 0., 0. ]
      - [ 0., 0., 0., 0., 0., 0., 2.16374658e+03, 0., 8415.,
          1.08187329e+03, 0., 0., 8415., 0., 2.16374658e+03, 0., 1530.,
          1.08187329e+03, 0., 0., 3060., 0., 1.19006064e+04, 0., 8415.,
          2.16374658e+03, 0., 0., 0., 0., 2.16374658e+03, 0., 2295., 0.,
          0., 0., 0., 0., 0., 0., 0., 0., 0., 0., 3825., 0.,
          9.73686035e+03, 0., 9945., 9.73686035e+03, 0., 0., 9180., 0.,
          9.73686035e+03, 0., 3060., 1.08187329e+03, 0., 0., 3060., 0.,
          1.19006064e+04, 0. ]
      - [ 1530., 0., 0., 0., 765., 0., 0., 0., 13005., 3.24562012e+03,
          0., 0., 1530., 0., 2.16374658e+03, 0., 1530., 1.08187329e+03,
          0., 0., 765., 0., 7.57311328e+03, 0., 8415., 0., 0., 0., 0.,
          0., 2.16374658e+03, 0., 16830., 3.24562012e+03, 0., 0., 3060.,
          0., 5.40936670e+03, 0., 3825., 2.16374658e+03, 0., 0., 5355.,
          0., 3.24562012e+03, 0., 3060., 1.51462266e+04, 0., 0., 6120.,
          0., 0., 0., 765., 5.40936670e+03, 0., 0., 4590., 0.,
          1.08187329e+03, 0. ]
      - [ 0., 1.08187329e+03, 0., 0., 765., 0., 0., 0., 765.,
          5.40936670e+03, 0., 0., 5355., 0., 0., 0., 3060.,
          3.24562012e+03, 0., 0., 765., 0., 5.40936670e+03, 0., 8415.,
          2.16374658e+03, 0., 0., 2295., 0., 3.24562012e+03, 0., 12240.,
          6.49124023e+03, 0., 0., 4590., 0., 0., 0., 11475.,
          6.49124023e+03, 0., 0., 765., 0., 4.32749316e+03, 0., 8415.,
          7.57311328e+03, 0., 0., 1530., 0., 0., 0., 3825.,
          5.40936670e+03, 0., 0., 5355., 0., 0., 0. ]
      - [ 2295., 3.24562012e+03, 0., 0., 765., 0., 2.16374658e+03, 0.,
          9945., 3.24562012e+03, 0., 0., 6885., 0., 0., 0., 3060.,
          2.16374658e+03, 0., 0., 0., 0., 0., 0., 4590., 0., 0., 0., 0.,
          0., 0., 0., 3060., 9.73686035e+03, 0., 0., 3825., 0., 0., 0.,
          1530., 0., 0., 0., 1530., 0., 1.08187329e+03, 0., 0., 0., 0.,
          0., 0., 0., 0., 0., 0., 0., 0., 0., 0., 0., 0., 0. ]
      - [ 3825., 0., 0., 0., 0., 0., 0., 0., 12240., 4.32749316e+03, 0.,
          0., 0., 0., 0., 0., 22950., 7.57311328e+03, 0., 0., 1530., 0.,
          8.65498633e+03, 0., 29070., 6.49124023e+03, 0., 0., 0., 0.,
          5.40936670e+03, 0., 5355., 4.32749316e+03, 0., 0., 0., 0., 0.,
          0., 0., 0., 0., 0., 0., 0., 4.32749316e+03, 0., 7650., 0., 0.,
          0., 0., 0., 0., 0., 0., 0., 0., 0., 0., 0., 0., 0. ]
      - [ 16065., 1.08187329e+03, 0., 0., 1530., 0., 4.32749316e+03, 0.,
          13770., 2.16374658e+03, 0., 0., 3825., 0., 1.08187329e+03, 0.,
          9945., 0., 0., 0., 0., 0., 1.08187334e+04, 0., 20655., 0., 0.,
          0., 0., 0., 2.16374658e+03, 0., 765., 0., 0., 0., 0., 0., 0.,
          0., 0., 0., 0., 0., 0., 0., 0., 0., 14535., 1.08187329e+03, 0.,
          0., 2295., 0., 2.16374658e+03, 0., 1530., 2.16374658e+03, 0.,
          0., 3060., 0., 8.65498633e+03, 0. ]
      - [ 6885., 0., 0., 0., 0., 0., 2.16374658e+03, 0., 13005.,
          1.08187329e+03, 0., 0., 0., 0., 5.40936670e+03, 0., 0., 0., 0.,
          0., 0., 0., 1.29824805e+04, 0., 13770., 0., 0., 0., 0., 0., 0.,
          0., 1530., 0., 0., 0., 0., 0., 0., 0., 0., 0., 0., 0., 0., 0.,
          4.32749316e+03, 0., 19890., 2.16374658e+03, 0., 0., 7650., 0.,
          4.21930625e+04, 0., 5355., 0., 0., 0., 9180., 0.,
          5.19299219e+04, 0. ]
      - [ 1530., 0., 0., 0., 1530., 0., 8.65498633e+03, 0., 7650.,
          2.16374658e+03, 0., 0., 0., 0., 1.08187329e+03, 0., 0., 0., 0.,
          0., 0., 0., 3.24562012e+03, 0., 2295., 0., 0., 0., 0., 0., 0.,
          0., 5355., 0., 0., 0., 0., 0., 0., 0., 0., 0., 0., 0., 0., 0.,
          1.08187334e+04, 0., 12240., 0., 0., 0., 4590., 0.,
          2.48830879e+04, 0., 7650., 0., 0., 0., 1530., 0.,
          2.48830879e+04, 0. ]
      - [ 2295., 0., 0., 0., 0., 0., 9.73686035e+03, 0., 7650.,
          1.08187329e+03, 0., 0., 0., 0., 5.40936670e+03, 0., 0., 0., 0.,
          0., 765., 0., 5.40936670e+03, 0., 9945., 2.16374658e+03, 0.,
          0., 0., 0., 0., 0., 4590., 0., 0., 0., 0., 0., 0., 0., 0., 0.,
          0., 0., 0., 0., 6.49124023e+03, 0., 26775., 6.49124023e+03, 0.,
          0., 2295., 0., 9.73686035e+03, 0., 15300., 3.24562012e+03, 0.,
          0., 3060., 0., 1.19006064e+04, 0. ]
      - [ 13005., 2.16374658e+03, 0., 0., 0., 0., 0., 0., 12240.,
          4.32749316e+03, 0., 0., 0., 0., 1.08187329e+03, 0., 10710.,
          5.40936670e+03, 0., 0., 0., 0., 1.08187329e+03, 0., 13770., 0.,
          0., 0., 0., 0., 0., 0., 0., 0., 0., 0., 0., 0., 0., 0., 0., 0.,
          0., 0., 0., 0., 0., 0., 0., 0., 0., 0., 0., 0., 0., 0., 0., 0.,
          0., 0., 0., 0., 0., 0. ]
      - [ 2295., 0., 0., 0., 0., 0., 4.32749316e+03, 0., 8415.,
          5.40936670e+03, 0., 0., 765., 0., 0., 0., 0., 0., 0., 0., 0.,
          0., 9.73686035e+03, 0., 6885., 0., 0., 0., 0., 0., 0., 0.,
          9945., 0., 0., 0., 0., 0., 0., 0., 0., 0., 0., 0., 2295., 0.,
          4.32749316e+03, 0., 35955., 5.40936670e+03, 0., 0., 765., 0.,
          5.40936670e+03, 0., 29070., 0., 0., 0., 0., 0., 9.73686035e+03,
          0. ]
      - [ 0., 0., 0., 0., 0., 0., 0., 0., 6120., 2.16374658e+03, 0., 0.,
          0., 0., 0., 0., 22185., 6.49124023e+03, 0., 0., 0., 0.,
          5.40936670e+03, 0., 29070., 1.29824805e+04, 0., 0., 0., 0., 0.,
          0., 12240., 4.32749316e+03, 0., 0., 0., 0., 0., 0., 5355.,
          3.24562012e+03, 0., 0., 0., 0., 0., 0., 10710., 6.49124023e+03,
          0., 0., 0., 0., 0., 0., 0., 0., 0., 0., 0., 0., 0., 0. ]
      - [ 2295., 0., 0., 0., 0., 0., 1.08187334e+04, 0., 6885.,
          1.08187329e+03, 0., 0., 0., 0., 3.24562012e+03, 0., 0., 0., 0.,
          0., 0., 0., 4.32749316e+03, 0., 765., 0., 0., 0., 0., 0., 0.,
          0., 3825., 0., 0., 0., 0., 0., 0., 0., 0., 0., 0., 0., 0., 0.,
          9.73686035e+03, 0., 20655., 1.08187329e+03, 0., 0., 0., 0.,
          1.62281006e+04, 0., 14535., 0., 0., 0., 0., 0., 1.19006064e+04,
          0. ]
      - [ 3060., 0., 0., 0., 0., 0., 3.24562012e+03, 0., 10710.,
          2.16374658e+03, 0., 0., 1530., 0., 5.40936670e+03, 0., 0., 0.,
          0., 0., 0., 0., 1.19006064e+04, 0., 10710., 0., 0., 0., 0., 0.,
          0., 0., 4590., 0., 0., 0., 0., 0., 0., 0., 0., 0., 0., 0.,
          1530., 0., 4.32749316e+03, 0., 30600., 1.08187329e+03, 0., 0.,
          7650., 0., 1.40643535e+04, 0., 16065., 2.16374658e+03, 0., 0.,
          2295., 0., 2.16374668e+04, 0. ]
      - [ 4590., 0., 0., 0., 0., 0., 7.57311328e+03, 0., 9945., 0., 0.,
          0., 3825., 0., 3.24562012e+03, 0., 0., 0., 0., 0., 0., 0.,
          7.57311328e+03, 0., 0., 0., 0., 0., 0., 0., 0., 0., 1530., 0.,
          0., 0., 0., 0., 0., 0., 0., 0., 0., 0., 1530., 0.,
          9.73686035e+03, 0., 15300., 3.24562012e+03, 0., 0., 3825., 0.,
          5.30117930e+04, 0., 12240., 0., 0., 0., 7650., 0.,
          5.30117930e+04, 0. ]
      - [ 5355., 4.32749316e+03, 0., 0., 765., 0., 1.08187329e+03, 0.,
          10710., 4.32749316e+03, 0., 0., 3825., 0., 4.32749316e+03, 0.,
          8415., 0., 0., 0., 765., 0., 1.51462266e+04, 0., 40545., 0.,
          0., 0., 0., 0., 3.24562012e+03, 0., 3060., 0., 0., 0., 0., 0.,
          0., 0., 0., 0., 0., 0., 0., 0., 0., 0., 60435., 9.73686035e+03,
          0., 0., 1530., 0., 2.05555938e+04, 0., 35190., 3.24562012e+03,
          0., 0., 4590., 0., 3.57018203e+04, 0. ]
      - [ 0., 0., 0., 0., 0., 0., 0., 0., 3825., 6.49124023e+03, 0., 0.,
          0., 0., 0., 0., 13005., 5.40936670e+03, 0., 0., 0., 0.,
          2.16374658e+03, 0., 48195., 9.73686035e+03, 0., 0., 0., 0., 0.,
          0., 9180., 7.57311328e+03, 0., 0., 0., 0., 0., 0., 3060.,
          5.40936670e+03, 0., 0., 1530., 0., 1.08187329e+03, 0., 31365.,
          9.73686035e+03, 0., 0., 0., 0., 0., 0., 0., 0., 0., 0., 0., 0.,
          2.16374658e+03, 0. ]
      - [ 3825., 0., 0., 0., 0., 0., 1.08187329e+03, 0., 9945.,
          5.40936670e+03, 0., 0., 1530., 0., 2.16374658e+03, 0., 0., 0.,
          0., 0., 0., 0., 1.40643535e+04, 0., 28305., 0., 0., 0., 0., 0.,
          0., 0., 6120., 0., 0., 0., 0., 0., 0., 0., 0., 0., 0., 0., 0.,
          0., 4.32749316e+03, 0., 43605., 0., 0., 0., 7650., 0.,
          1.51462266e+04, 0., 13770., 0., 0., 0., 765., 0.,
          2.70468340e+04, 0. ]
      - [ 3060., 0., 0., 0., 0., 0., 4.32749316e+03, 0., 3825.,
          4.32749316e+03, 0., 0., 1530., 0., 2.16374658e+03, 0., 45135.,
          9.73686035e+03, 0., 0., 1530., 0., 3.24562012e+03, 0., 63495.,
          1.08187334e+04, 0., 0., 0., 0., 0., 0., 3825., 0., 0., 0., 0.,
          0., 0., 0., 0., 0., 0., 0., 0., 0., 2.16374658e+03, 0., 19890.,
          2.16374658e+03, 0., 0., 0., 0., 0., 0., 0., 0., 0., 0., 0., 0.,
          0., 0. ]
      - [ 0., 0., 0., 0., 0., 0., 0., 0., 0., 0., 0., 0., 0., 0., 0., 0.,
          2295., 6.49124023e+03, 0., 0., 3060., 0., 5.40936670e+03, 0.,
          19125., 1.62281006e+04, 0., 0., 0., 0., 0., 0., 6885.,
          2.16374658e+03, 0., 0., 0., 0., 0., 0., 8415., 3.24562012e+03,
          0., 0., 4590., 0., 3.24562012e+03, 0., 22950., 1.29824805e+04,
          0., 0., 0., 0., 0., 0., 3060., 2.16374658e+03, 0., 0., 0., 0.,
          0., 0. ]
      - [ 765., 0., 0., 0., 0., 0., 6.49124023e+03, 0., 6885.,
          5.40936670e+03, 0., 0., 0., 0., 0., 0., 0., 0., 0., 0., 765.,
          0., 1.40643535e+04, 0., 22185., 4.32749316e+03, 0., 0., 1530.,
          0., 0., 0., 5355., 0., 0., 0., 0., 0., 0., 0., 0., 0., 0., 0.,
          0., 0., 1.29824805e+04, 0., 49725., 5.40936670e+03, 0., 0.,
          5355., 0., 9.73686035e+03, 0., 19125., 3.24562012e+03, 0., 0.,
          0., 0., 1.40643535e+04, 0. ]
      - [ 0., 0., 0., 0., 0., 0., 0., 0., 13770., 2.16374658e+03, 0., 0.,
          0., 0., 0., 0., 13005., 6.49124023e+03, 0., 0., 0., 0.,
          2.16374658e+03, 0., 19125., 5.40936670e+03, 0., 0., 0., 0., 0.,
          0., 10710., 2.16374658e+03, 0., 0., 0., 0., 0., 0., 0., 0., 0.,
          0., 0., 0., 4.32749316e+03, 0., 3825., 4.32749316e+03, 0., 0.,
          0., 0., 0., 0., 0., 0., 0., 0., 0., 0., 0., 0. ]
      - [ 0., 2.16374658e+03, 0., 0., 2295., 0., 3.24562012e+03, 0.,
          3060., 9.73686035e+03, 0., 0., 3060., 0., 1.08187329e+03, 0.,
          0., 0., 0., 0., 2295., 0., 3.24562012e+03, 0., 5355., 0., 0.,
          0., 0., 0., 0., 0., 3060., 0., 0., 0., 0., 0., 0., 0., 0., 0.,
          0., 0., 0., 0., 9.73686035e+03, 0., 48960., 1.08187329e+03, 0.,
          0., 3060., 0., 2.70468340e+04, 0., 39015., 0., 0., 0., 0., 0.,
          2.27193398e+04, 0. ]
      - [ 2295., 0., 0., 0., 0., 0., 8.65498633e+03, 0., 8415.,
          1.08187329e+03, 0., 0., 0., 0., 3.24562012e+03, 0., 0., 0., 0.,
          0., 0., 0., 6.49124023e+03, 0., 6120., 0., 0., 0., 0., 0., 0.,
          0., 6120., 0., 0., 0., 0., 0., 0., 0., 0., 0., 0., 0., 0., 0.,
          6.49124023e+03, 0., 11475., 2.16374658e+03, 0., 0., 6885., 0.,
          1.62281006e+04, 0., 6885., 0., 0., 0., 9180., 0.,
          2.27193398e+04, 0. ]
      - [ 1530., 0., 0., 0., 0., 0., 6.49124023e+03, 0., 8415.,
          3.24562012e+03, 0., 0., 0., 0., 1.08187329e+03, 0., 0., 0., 0.,
          0., 0., 0., 8.65498633e+03, 0., 6120., 0., 0., 0., 0., 0., 0.,
          0., 8415., 0., 0., 0., 0., 0., 0., 0., 0., 0., 0., 0., 3060.,
          0., 6.49124023e+03, 0., 51255., 3.24562012e+03, 0., 0., 0., 0.,
          1.40643535e+04, 0., 43605., 0., 0., 0., 0., 0., 1.73099727e+04,
          0. ]
      - [ 2295., 0., 0., 0., 1530., 0., 1.08187329e+03, 0., 9180.,
          6.49124023e+03, 0., 0., 765., 0., 3.24562012e+03, 0., 6120.,
          0., 0., 0., 765., 0., 9.73686035e+03, 0., 23715., 0., 0., 0.,
          0., 0., 0., 0., 6885., 1.08187329e+03, 0., 0., 1530., 0.,
          3.24562012e+03, 0., 0., 0., 0., 0., 0., 0., 6.49124023e+03, 0.,
          19125., 2.16374658e+03, 0., 0., 1530., 0., 0., 0., 1530., 0.,
          0., 0., 5355., 0., 7.57311328e+03, 0. ]
      - [ 0., 0., 0., 0., 0., 0., 0., 0., 11475., 5.40936670e+03, 0., 0.,
          0., 0., 0., 0., 32130., 4.32749316e+03, 0., 0., 0., 0.,
          7.57311328e+03, 0., 33660., 4.32749316e+03, 0., 0., 0., 0., 0.,
          0., 13005., 2.16374658e+03, 0., 0., 0., 0., 0., 0., 0., 0., 0.,
          0., 0., 0., 1.08187329e+03, 0., 5355., 2.16374658e+03, 0., 0.,
          0., 0., 0., 0., 0., 0., 0., 0., 0., 0., 0., 0. ]
      - [ 0., 0., 0., 0., 0., 0., 0., 0., 12240., 4.32749316e+03, 0., 0.,
          0., 0., 0., 0., 35190., 2.16374658e+03, 0., 0., 0., 0.,
          8.65498633e+03, 0., 33660., 3.24562012e+03, 0., 0., 0., 0., 0.,
          0., 13770., 2.16374658e+03, 0., 0., 0., 0., 0., 0., 0., 0., 0.,
          0., 0., 0., 0., 0., 3825., 2.16374658e+03, 0., 0., 0., 0., 0.,
          0., 0., 0., 0., 0., 0., 0., 0., 0. ]
      - [ 1530., 0., 0., 0., 0., 0., 2.16374658e+03, 0., 6885.,
          3.24562012e+03, 0., 0., 6120., 0., 3.24562012e+03, 0., 0., 0.,
          0., 0., 0., 0., 1.29824805e+04, 0., 14535., 0., 0., 0., 0., 0.,
          0., 0., 5355., 0., 0., 0., 0., 0., 0., 0., 0., 0., 0., 0., 0.,
          0., 2.16374658e+03, 0., 48195., 2.16374658e+03, 0., 0., 1530.,
          0., 1.73099727e+04, 0., 26010., 0., 0., 0., 1530., 0.,
          1.73099727e+04, 0. ]
      - [ 2295., 0., 0., 0., 0., 0., 4.32749316e+03, 0., 9945.,
          3.24562012e+03, 0., 0., 0., 0., 1.08187329e+03, 0., 0., 0., 0.,
          0., 0., 0., 1.08187334e+04, 0., 9945., 0., 0., 0., 0., 0., 0.,
          0., 9180., 0., 0., 0., 0., 0., 0., 0., 0., 0., 0., 0., 0., 0.,
          4.32749316e+03, 0., 13770., 1.08187329e+03, 0., 0., 3060., 0.,
          1.19006064e+04, 0., 765., 0., 0., 0., 1530., 0.,
          1.73099727e+04, 0. ]
      - [ 1530., 0., 0., 0., 0., 0., 0., 0., 14535., 1.08187329e+03, 0.,
          0., 0., 0., 1.08187329e+03, 0., 25245., 4.32749316e+03, 0., 0.,
          0., 0., 1.40643535e+04, 0., 35190., 6.49124023e+03, 0., 0., 0.,
          0., 4.32749316e+03, 0., 11475., 0., 0., 0., 0., 0., 0., 0., 0.,
          0., 0., 0., 0., 0., 2.16374658e+03, 0., 13770., 2.16374658e+03,
          0., 0., 0., 0., 0., 0., 765., 0., 0., 0., 0., 0.,
          5.40936670e+03, 0. ]
      - [ 765., 0., 0., 0., 0., 0., 0., 0., 13005., 3.24562012e+03, 0.,
          0., 765., 0., 0., 0., 0., 0., 0., 0., 0., 0., 1.62281006e+04,
          0., 26010., 1.08187329e+03, 0., 0., 0., 0., 0., 0., 10710., 0.,
          0., 0., 0., 0., 0., 0., 0., 0., 0., 0., 0., 0., 5.40936670e+03,
          0., 67320., 4.32749316e+03, 0., 0., 0., 0., 8.65498633e+03, 0.,
          33660., 0., 0., 0., 0., 0., 1.08187334e+04, 0. ]
      - [ 0., 0., 0., 0., 0., 0., 0., 0., 9945., 7.57311328e+03, 0., 0.,
          0., 0., 0., 0., 0., 0., 0., 0., 1530., 0., 1.40643535e+04, 0.,
          34425., 3.24562012e+03, 0., 0., 0., 0., 0., 0., 11475.,
          1.08187329e+03, 0., 0., 0., 0., 0., 0., 0., 0., 0., 0., 0., 0.,
          4.32749316e+03, 0., 73440., 6.49124023e+03, 0., 0., 0., 0.,
          5.40936670e+03, 0., 30600., 0., 0., 0., 0., 0., 4.32749316e+03,
          0. ]
      - [ 765., 1.08187329e+03, 0., 0., 3060., 0., 1.08187329e+03, 0.,
          11475., 5.40936670e+03, 0., 0., 0., 0., 0., 0., 0., 0., 0., 0.,
          0., 0., 4.32749316e+03, 0., 67320., 0., 0., 0., 0., 0., 0., 0.,
          10710., 0., 0., 0., 0., 0., 0., 0., 0., 0., 0., 0., 0., 0.,
          5.40936670e+03, 0., 63495., 3.24562012e+03, 0., 0., 0., 0., 0.,
          0., 0., 0., 0., 0., 0., 0., 6.49124023e+03, 0. ]
      - [ 1530., 0., 0., 0., 0., 0., 3.24562012e+03, 0., 9180.,
          5.40936670e+03, 0., 0., 1530., 0., 2.16374658e+03, 0., 0., 0.,
          0., 0., 0., 0., 1.40643535e+04, 0., 11475., 0., 0., 0., 0., 0.,
          0., 0., 9180., 0., 0., 0., 0., 0., 0., 0., 0., 0., 0., 0.,
          765., 0., 4.32749316e+03, 0., 20655., 1.08187329e+03, 0., 0.,
          3060., 0., 1.19006064e+04, 0., 3060., 0., 0., 0., 1530., 0.,
          1.62281006e+04, 0. ]
      - [ 5355., 0., 0., 0., 765., 0., 5.40936670e+03, 0., 9180.,
          3.24562012e+03, 0., 0., 0., 0., 5.40936670e+03, 0., 0., 0., 0.,
          0., 765., 0., 7.57311328e+03, 0., 3825., 0., 0., 0., 0., 0.,
          0., 0., 2295., 0., 0., 0., 0., 0., 0., 0., 0., 0., 0., 0., 0.,
          0., 5.40936670e+03, 0., 61965., 0., 0., 0., 0., 0.,
          4.21930625e+04, 0., 52785., 0., 0., 0., 1530., 0.,
          4.21930625e+04, 0. ]
      - [ 2295., 0., 0., 0., 0., 0., 0., 0., 11475., 5.40936670e+03, 0.,
          0., 0., 0., 3.24562012e+03, 0., 0., 0., 0., 0., 0., 0.,
          1.51462266e+04, 0., 28305., 0., 0., 0., 0., 0., 0., 0., 9180.,
          0., 0., 0., 0., 0., 0., 0., 0., 0., 0., 0., 0., 0.,
          2.16374658e+03, 0., 29835., 2.16374658e+03, 0., 0., 6885., 0.,
          2.05555938e+04, 0., 1530., 0., 0., 0., 1530., 0.,
          3.35380742e+04, 0. ]
      - [ 0., 0., 0., 0., 0., 0., 0., 0., 13005., 3.24562012e+03, 0., 0.,
          0., 0., 0., 0., 0., 1.08187329e+03, 0., 0., 4590., 0.,
          7.57311328e+03, 0., 13770., 4.32749316e+03, 0., 0., 0., 0., 0.,
          0., 9945., 0., 0., 0., 0., 0., 0., 0., 0., 0., 0., 0., 0., 0.,
          7.57311328e+03, 0., 36720., 2.16374658e+03, 0., 0., 765., 0.,
          2.27193398e+04, 0., 19125., 0., 0., 0., 3060., 0.,
          2.59649609e+04, 0. ]
      - [ 0., 0., 0., 0., 0., 0., 0., 0., 7650., 1.08187334e+04, 0., 0.,
          0., 0., 0., 0., 0., 0., 0., 0., 1530., 0., 1.29824805e+04, 0.,
          24480., 1.08187329e+03, 0., 0., 0., 0., 0., 0., 11475.,
          4.32749316e+03, 0., 0., 0., 0., 0., 0., 0., 0., 0., 0., 0., 0.,
          1.08187329e+03, 0., 36720., 0., 0., 0., 0., 0., 2.16374658e+03,
          0., 2295., 0., 0., 0., 0., 0., 2.16374658e+03, 0. ]
      - [ 0., 0., 0., 0., 0., 0., 0., 0., 11475., 4.32749316e+03, 0., 0.,
          0., 0., 0., 0., 33660., 5.40936670e+03, 0., 0., 765., 0.,
          5.40936670e+03, 0., 52020., 9.73686035e+03, 0., 0., 765., 0.,
          3.24562012e+03, 0., 13005., 1.08187329e+03, 0., 0., 0., 0., 0.,
          0., 0., 0., 0., 0., 765., 0., 1.08187329e+03, 0., 13770.,
          9.73686035e+03, 0., 0., 0., 0., 0., 0., 0., 0., 0., 0., 765.,
          0., 3.24562012e+03, 0. ]
      - [ 10710., 0., 0., 0., 0., 0., 2.16374658e+03, 0., 13770., 0., 0.,
          0., 0., 0., 6.49124023e+03, 0., 55080., 6.49124023e+03, 0., 0.,
          0., 0., 4.32749316e+03, 0., 64260., 0., 0., 0., 0., 0.,
          1.08187329e+03, 0., 0., 0., 0., 0., 0., 0., 0., 0., 0., 0., 0.,
          0., 0., 0., 0., 0., 6885., 0., 0., 0., 0., 0., 0., 0., 0., 0.,
          0., 0., 0., 0., 0., 0. ]
      - [ 1530., 0., 0., 0., 0., 0., 0., 0., 8415., 3.24562012e+03, 0.,
          0., 3060., 0., 7.57311328e+03, 0., 0., 0., 0., 0., 2295., 0.,
          1.19006064e+04, 0., 19125., 0., 0., 0., 0., 0., 0., 0., 2295.,
          0., 0., 0., 0., 0., 0., 0., 0., 0., 0., 0., 0., 0.,
          2.16374658e+03, 0., 22185., 4.32749316e+03, 0., 0., 765., 0.,
          0., 0., 0., 0., 0., 0., 0., 0., 3.24562012e+03, 0. ]
      - [ 3825., 5.40936670e+03, 0., 0., 1530., 0., 3.24562012e+03, 0.,
          9945., 5.40936670e+03, 0., 0., 0., 0., 0., 0., 5355.,
          1.08187329e+03, 0., 0., 1530., 0., 3.24562012e+03, 0., 5355.,
          0., 0., 0., 0., 0., 2.16374658e+03, 0., 2295., 0., 0., 0., 0.,
          0., 7.57311328e+03, 0., 1530., 0., 0., 0., 765., 0.,
          1.83918477e+04, 0., 26010., 0., 0., 0., 765., 0.,
          4.54386797e+04, 0., 19890., 0., 0., 0., 0., 0., 3.67836953e+04,
          0. ]
      - [ 0., 0., 0., 0., 0., 0., 0., 0., 15300., 0., 0., 0., 0., 0., 0.,
          0., 3825., 5.40936670e+03, 0., 0., 765., 0., 1.08187329e+03,
          0., 31365., 8.65498633e+03, 0., 0., 0., 0., 0., 0., 11475.,
          1.08187329e+03, 0., 0., 0., 0., 0., 0., 0., 0., 0., 0., 0., 0.,
          4.32749316e+03, 0., 21420., 1.29824805e+04, 0., 0., 0., 0., 0.,
          0., 0., 0., 0., 0., 0., 0., 0., 0. ]
      - [ 0., 0., 0., 0., 0., 0., 0., 0., 0., 0., 0., 0., 0., 0., 0., 0.,
          3060., 0., 0., 0., 0., 0., 1.51462266e+04, 0., 17595.,
          3.24562012e+03, 0., 0., 6120., 0., 3.24562012e+03, 0., 3825.,
          1.08187329e+03, 0., 0., 0., 0., 2.16374658e+03, 0., 5355.,
          4.32749316e+03, 0., 0., 3060., 0., 7.57311328e+03, 0., 37485.,
          1.73099727e+04, 0., 0., 4590., 0., 9.73686035e+03, 0., 19890.,
          6.49124023e+03, 0., 0., 3060., 0., 9.73686035e+03, 0. ]
      - [ 765., 0., 0., 0., 0., 0., 2.16374658e+03, 0., 9945.,
          5.40936670e+03, 0., 0., 0., 0., 0., 0., 0., 0., 0., 0., 4590.,
          0., 6.49124023e+03, 0., 765., 0., 0., 0., 0., 0., 0., 0.,
          12240., 4.32749316e+03, 0., 0., 1530., 0., 0., 0., 0.,
          1.19006064e+04, 0., 0., 10710., 0., 1.08187334e+04, 0., 34425.,
          6.49124023e+03, 0., 0., 8415., 0., 5.30117930e+04, 0., 29070.,
          0., 0., 0., 1530., 0., 4.65205547e+04, 0. ]
      - [ 765., 0., 0., 0., 0., 0., 0., 0., 12240., 4.32749316e+03, 0.,
          0., 0., 0., 0., 0., 0., 0., 0., 0., 3825., 0., 9.73686035e+03,
          0., 6885., 0., 0., 0., 0., 0., 0., 0., 9180., 0., 0., 0., 0.,
          0., 0., 0., 1530., 6.49124023e+03, 0., 0., 9945., 0.,
          1.62281006e+04, 0., 44370., 7.57311328e+03, 0., 0., 9180., 0.,
          4.21930625e+04, 0., 26010., 0., 0., 0., 2295., 0.,
          2.81287070e+04, 0. ]
      - [ 3825., 0., 0., 0., 0., 0., 3.24562012e+03, 0., 12240.,
          1.08187329e+03, 0., 0., 765., 0., 1.08187329e+03, 0., 0., 0.,
          0., 0., 2295., 0., 8.65498633e+03, 0., 0., 0., 0., 0., 0., 0.,
          0., 0., 11475., 7.57311328e+03, 0., 0., 0., 0., 0., 0., 4590.,
          6.49124023e+03, 0., 0., 3060., 0., 4.32749316e+03, 0., 28305.,
          1.08187329e+03, 0., 0., 765., 0., 4.76024258e+04, 0., 16830.,
          0., 0., 0., 0., 0., 3.89474414e+04, 0. ]
      - [ 0., 0., 0., 0., 0., 0., 1.08187329e+03, 0., 3060.,
          3.24562012e+03, 0., 0., 6885., 0., 2.16374658e+03, 0., 0., 0.,
          0., 0., 5355., 0., 6.49124023e+03, 0., 0., 0., 0., 0., 0., 0.,
          0., 0., 3060., 7.57311328e+03, 0., 0., 2295., 0., 0., 0., 0.,
          1.19006064e+04, 0., 0., 19125., 0., 6.49124023e+03, 0., 24480.,
          7.57311328e+03, 0., 0., 16830., 0., 4.97661758e+04, 0., 21420.,
          0., 0., 0., 1530., 0., 4.43568086e+04, 0. ]
      - [ 6120., 0., 0., 0., 0., 0., 2.16374658e+03, 0., 13005.,
          1.08187329e+03, 0., 0., 1530., 0., 4.32749316e+03, 0., 0., 0.,
          0., 0., 0., 0., 1.29824805e+04, 0., 18360., 0., 0., 0., 0., 0.,
          0., 0., 6120., 4.32749316e+03, 0., 0., 3060., 0., 0., 0., 0.,
          4.32749316e+03, 0., 0., 8415., 0., 0., 0., 25245.,
          5.40936670e+03, 0., 0., 3060., 0., 7.57311328e+03, 0., 6885.,
          1.08187329e+03, 0., 0., 1530., 0., 1.62281006e+04, 0. ]
      - [ 0., 0., 0., 0., 0., 0., 3.24562012e+03, 0., 3060.,
          3.24562012e+03, 0., 0., 3825., 0., 6.49124023e+03, 0., 0., 0.,
          0., 0., 0., 0., 1.19006064e+04, 0., 765., 0., 0., 0., 0., 0.,
          0., 0., 11475., 0., 0., 0., 0., 0., 2.16374658e+03, 0., 9945.,
          5.40936670e+03, 0., 0., 6120., 0., 9.73686035e+03, 0., 13005.,
          7.57311328e+03, 0., 0., 9945., 0., 2.59649609e+04, 0., 6120.,
          0., 0., 0., 2295., 0., 2.16374668e+04, 0. ]
      - [ 0., 0., 0., 0., 0., 0., 7.57311328e+03, 0., 4590.,
          2.16374658e+03, 0., 0., 7650., 0., 2.16374658e+03, 0., 0., 0.,
          0., 0., 0., 0., 7.57311328e+03, 0., 21420., 0., 0., 0., 0., 0.,
          0., 0., 6885., 9.73686035e+03, 0., 0., 0., 0., 0., 0., 765.,
          5.40936670e+03, 0., 0., 3060., 0., 1.08187329e+03, 0., 25245.,
          1.08187329e+03, 0., 0., 765., 0., 3.24562012e+03, 0., 3060.,
          0., 0., 0., 0., 0., 8.65498633e+03, 0. ]
      - [ 0., 0., 0., 0., 1530., 0., 6.49124023e+03, 0., 6885.,
          3.24562012e+03, 0., 0., 3060., 0., 4.32749316e+03, 0., 0., 0.,
          0., 0., 0., 0., 3.24562012e+03, 0., 23715., 0., 0., 0., 0., 0.,
          0., 0., 8415., 9.73686035e+03, 0., 0., 4590., 0., 0., 0.,
          2295., 3.24562012e+03, 0., 0., 7650., 0., 0., 0., 22185.,
          2.16374658e+03, 0., 0., 0., 0., 0., 0., 0., 0., 0., 0., 0., 0.,
          3.24562012e+03, 0. ]
      - [ 3825., 0., 0., 0., 0., 0., 0., 0., 6885., 1.08187329e+03, 0.,
          0., 3060., 0., 5.40936670e+03, 0., 3060., 1.08187329e+03, 0.,
          0., 4590., 0., 7.57311328e+03, 0., 19125., 0., 0., 0., 0., 0.,
          4.32749316e+03, 0., 13005., 2.16374658e+03, 0., 0., 0., 0.,
          1.08187329e+03, 0., 13005., 2.16374658e+03, 0., 0., 765., 0.,
          1.08187329e+03, 0., 32130., 1.40643535e+04, 0., 0., 0., 0.,
          3.24562012e+03, 0., 20655., 7.57311328e+03, 0., 0., 1530., 0.,
          5.40936670e+03, 0. ]
      - [ 1530., 0., 0., 0., 0., 0., 0., 0., 5355., 3.24562012e+03, 0.,
          0., 3060., 0., 7.57311328e+03, 0., 0., 0., 0., 0., 3060., 0.,
          1.08187334e+04, 0., 5355., 0., 0., 0., 0., 0., 0., 0., 12240.,
          3.24562012e+03, 0., 0., 0., 0., 0., 0., 10710., 6.49124023e+03,
          0., 0., 0., 0., 2.16374658e+03, 0., 17595., 1.19006064e+04, 0.,
          0., 3060., 0., 3.78655664e+04, 0., 6120., 7.57311328e+03, 0.,
          0., 4590., 0., 3.57018203e+04, 0. ]
      - [ 0., 0., 0., 0., 0., 0., 1.08187329e+03, 0., 6120.,
          7.57311328e+03, 0., 0., 4590., 0., 1.08187329e+03, 0., 0., 0.,
          0., 0., 0., 0., 1.19006064e+04, 0., 27540., 1.08187329e+03, 0.,
          0., 0., 0., 0., 0., 17595., 7.57311328e+03, 0., 0., 0., 0., 0.,
          0., 4590., 1.51462266e+04, 0., 0., 2295., 0., 5.40936670e+03,
          0., 24480., 1.51462266e+04, 0., 0., 6120., 0., 0., 0., 0., 0.,
          0., 0., 2295., 0., 2.16374658e+03, 0. ]
      - [ 0., 0., 0., 0., 0., 0., 0., 0., 0., 0., 0., 0., 0., 0., 0., 0.,
          0., 0., 0., 0., 2295., 0., 1.08187334e+04, 0., 7650.,
          1.08187329e+03, 0., 0., 3825., 0., 7.57311328e+03, 0., 10710.,
          0., 0., 0., 0., 0., 6.49124023e+03, 0., 9945., 1.08187329e+03,
          0., 0., 0., 0., 6.49124023e+03, 0., 16065., 1.40643535e+04, 0.,
          0., 13770., 0., 1.83918477e+04, 0., 14535., 9.73686035e+03, 0.,
          0., 20655., 0., 2.70468340e+04, 0. ]
      - [ 3060., 0., 0., 0., 0., 0., 4.32749316e+03, 0., 11475.,
          1.08187329e+03, 0., 0., 765., 0., 2.16374658e+03, 0., 0., 0.,
          0., 0., 0., 0., 1.08187334e+04, 0., 24480., 0., 0., 0., 0., 0.,
          0., 0., 1530., 4.32749316e+03, 0., 0., 6120., 0., 0., 0., 0.,
          0., 0., 0., 28305., 0., 8.65498633e+03, 0., 33660.,
          3.24562012e+03, 0., 0., 19890., 0., 1.29824805e+04, 0., 4590.,
          0., 0., 0., 0., 0., 1.40643535e+04, 0. ]
      - [ 1530., 0., 0., 0., 1530., 0., 1.19006064e+04, 0., 4590.,
          2.16374658e+03, 0., 0., 0., 0., 0., 0., 0., 0., 0., 0., 0., 0.,
          0., 0., 0., 0., 0., 0., 0., 0., 0., 0., 9180., 8.65498633e+03,
          0., 0., 6120., 0., 1.08187329e+03, 0., 3060., 4.32749316e+03,
          0., 0., 7650., 0., 6.49124023e+03, 0., 29835., 3.24562012e+03,
          0., 0., 0., 0., 2.05555938e+04, 0., 27540., 0., 0., 0., 0., 0.,
          1.40643535e+04, 0. ]
      - [ 1530., 0., 0., 0., 0., 0., 3.24562012e+03, 0., 9180.,
          3.24562012e+03, 0., 0., 4590., 0., 2.16374658e+03, 0., 0., 0.,
          0., 0., 1530., 0., 9.73686035e+03, 0., 6120., 0., 0., 0., 0.,
          0., 0., 0., 8415., 7.57311328e+03, 0., 0., 0., 0., 0., 0.,
          2295., 7.57311328e+03, 0., 0., 6120., 0., 6.49124023e+03, 0.,
          20655., 8.65498633e+03, 0., 0., 2295., 0., 1.40643535e+04, 0.,
          9945., 0., 0., 0., 1530., 0., 8.65498633e+03, 0. ]
      - [ 0., 0., 0., 0., 0., 0., 0., 0., 0., 0., 0., 0., 0., 0., 0., 0.,
          765., 0., 0., 0., 0., 0., 1.40643535e+04, 0., 22185.,
          6.49124023e+03, 0., 0., 3060., 0., 3.24562012e+03, 0., 8415.,
          0., 0., 0., 0., 0., 0., 0., 7650., 4.32749316e+03, 0., 0.,
          3060., 0., 3.24562012e+03, 0., 69615., 2.81287070e+04, 0., 0.,
          6120., 0., 2.16374668e+04, 0., 42840., 1.83918477e+04, 0., 0.,
          4590., 0., 2.16374668e+04, 0. ]
      - [ 0., 0., 0., 0., 0., 0., 2.16374658e+03, 0., 6120.,
          2.16374658e+03, 0., 0., 6120., 0., 3.24562012e+03, 0., 0., 0.,
          0., 0., 0., 0., 1.19006064e+04, 0., 3060., 0., 0., 0., 0., 0.,
          0., 0., 5355., 1.40643535e+04, 0., 0., 2295., 0., 0., 0.,
          1530., 1.83918477e+04, 0., 0., 10710., 0., 8.65498633e+03, 0.,
          29835., 8.65498633e+03, 0., 0., 11475., 0., 4.76024258e+04, 0.,
          18360., 0., 0., 0., 2295., 0., 3.89474414e+04, 0. ]
      - [ 0., 0., 0., 0., 0., 0., 8.65498633e+03, 0., 6120.,
          2.16374658e+03, 0., 0., 1530., 0., 5.40936670e+03, 0., 0., 0.,
          0., 0., 0., 0., 5.40936670e+03, 0., 0., 0., 0., 0., 0., 0., 0.,
          0., 4590., 1.73099727e+04, 0., 0., 14535., 0., 0., 0., 1530.,
          1.51462266e+04, 0., 0., 22950., 0., 7.57311328e+03, 0., 35955.,
          5.40936670e+03, 0., 0., 2295., 0., 4.65205547e+04, 0., 30600.,
          0., 0., 0., 1530., 0., 3.89474414e+04, 0. ]
      - [ 4590., 0., 0., 0., 0., 0., 9.73686035e+03, 0., 7650.,
          1.08187329e+03, 0., 0., 765., 0., 5.40936670e+03, 0., 0., 0.,
          0., 0., 0., 0., 6.49124023e+03, 0., 22185., 1.08187329e+03, 0.,
          0., 0., 0., 0., 0., 8415., 9.73686035e+03, 0., 0., 4590., 0.,
          1.08187329e+03, 0., 7650., 6.49124023e+03, 0., 0., 27540., 0.,
          6.49124023e+03, 0., 32895., 1.08187334e+04, 0., 0., 22950., 0.,
          4.32749316e+03, 0., 13005., 0., 0., 0., 0., 0., 4.32749316e+03,
          0. ]
      - [ 1530., 0., 0., 0., 765., 0., 7.57311328e+03, 0., 6120.,
          1.08187329e+03, 0., 0., 6120., 0., 5.40936670e+03, 0., 0., 0.,
          0., 0., 765., 0., 5.40936670e+03, 0., 4590., 0., 0., 0., 0.,
          0., 0., 0., 5355., 1.19006064e+04, 0., 0., 6120., 0., 0., 0.,
          4590., 9.73686035e+03, 0., 0., 21420., 0., 6.49124023e+03, 0.,
          39015., 2.16374658e+03, 0., 0., 16830., 0., 3.24562012e+04, 0.,
          28305., 0., 0., 0., 1530., 0., 2.70468340e+04, 0. ]
      - [ 3060., 0., 0., 0., 0., 0., 8.65498633e+03, 0., 8415.,
          1.08187329e+03, 0., 0., 0., 0., 3.24562012e+03, 0., 0., 0., 0.,
          0., 0., 0., 5.40936670e+03, 0., 2295., 0., 0., 0., 0., 0., 0.,
          0., 13005., 3.24562012e+03, 0., 0., 0., 0., 2.16374658e+03, 0.,
          6885., 8.65498633e+03, 0., 0., 1530., 0., 1.29824805e+04, 0.,
          28305., 1.62281006e+04, 0., 0., 4590., 0., 1.08187334e+04, 0.,
          30600., 2.16374658e+03, 0., 0., 2295., 0., 8.65498633e+03, 0. ]
      - [ 0., 0., 0., 0., 0., 0., 1.08187329e+03, 0., 9180.,
          3.24562012e+03, 0., 0., 3060., 0., 7.57311328e+03, 0., 0., 0.,
          0., 0., 0., 0., 1.08187334e+04, 0., 19125., 0., 0., 0., 0., 0.,
          0., 0., 8415., 9.73686035e+03, 0., 0., 0., 0., 0., 0., 4590.,
          5.40936670e+03, 0., 0., 0., 0., 0., 0., 22185., 3.24562012e+03,
          0., 0., 765., 0., 0., 0., 0., 0., 0., 0., 0., 0.,
          3.24562012e+03, 0. ]
      - [ 0., 0., 0., 0., 0., 0., 0., 0., 0., 2.16374658e+03, 0., 0.,
          2295., 0., 2.16374658e+03, 0., 1530., 1.08187329e+03, 0., 0.,
          0., 0., 1.51462266e+04, 0., 16065., 3.24562012e+03, 0., 0.,
          765., 0., 4.32749316e+03, 0., 6120., 1.08187329e+03, 0., 0.,
          2295., 0., 5.40936670e+03, 0., 11475., 1.08187329e+03, 0., 0.,
          0., 0., 1.29824805e+04, 0., 49725., 1.19006064e+04, 0., 0.,
          13005., 0., 1.19006064e+04, 0., 32130., 3.24562012e+03, 0., 0.,
          10710., 0., 1.19006064e+04, 0. ]
      - [ 0., 0., 0., 0., 0., 0., 0., 0., 1530., 4.32749316e+03, 0., 0.,
          6120., 0., 1.08187329e+03, 0., 0., 0., 0., 0., 0., 0.,
          1.51462266e+04, 0., 16065., 1.08187329e+03, 0., 0., 0., 0., 0.,
          0., 12240., 0., 0., 0., 0., 0., 4.32749316e+03, 0., 9945.,
          3.24562012e+03, 0., 0., 0., 0., 9.73686035e+03, 0., 75735.,
          2.05555938e+04, 0., 0., 1530., 0., 2.59649609e+04, 0., 52785.,
          1.19006064e+04, 0., 0., 3060., 0., 2.38012129e+04, 0. ]
      - [ 765., 0., 0., 0., 0., 0., 5.40936670e+03, 0., 7650.,
          1.08187329e+03, 0., 0., 4590., 0., 7.57311328e+03, 0., 0., 0.,
          0., 0., 0., 0., 9.73686035e+03, 0., 0., 0., 0., 0., 0., 0., 0.,
          0., 12240., 4.32749316e+03, 0., 0., 0., 0., 0., 0., 9945.,
          6.49124023e+03, 0., 0., 765., 0., 7.57311328e+03, 0., 40545.,
          2.05555938e+04, 0., 0., 9945., 0., 2.05555938e+04, 0., 37485.,
          1.19006064e+04, 0., 0., 10710., 0., 1.73099727e+04, 0. ]
      - [ 1530., 0., 0., 0., 0., 0., 0., 0., 3825., 5.40936670e+03, 0.,
          0., 2295., 0., 6.49124023e+03, 0., 0., 0., 0., 0., 1530., 0.,
          9.73686035e+03, 0., 25245., 0., 0., 0., 0., 0., 0., 0., 12240.,
          4.32749316e+03, 0., 0., 0., 0., 0., 0., 8415., 7.57311328e+03,
          0., 0., 3825., 0., 0., 0., 25245., 7.57311328e+03, 0., 0.,
          3060., 0., 0., 0., 0., 0., 0., 0., 0., 0., 2.16374658e+03, 0. ]
      - [ 0., 0., 0., 0., 0., 0., 0., 0., 3825., 5.40936670e+03, 0., 0.,
          4590., 0., 3.24562012e+03, 0., 0., 0., 0., 0., 1530., 0.,
          1.29824805e+04, 0., 6885., 0., 0., 0., 0., 0., 0., 0., 13005.,
          1.08187329e+03, 0., 0., 0., 0., 0., 0., 13770., 2.16374658e+03,
          0., 0., 0., 0., 9.73686035e+03, 0., 57375., 1.94737207e+04, 0.,
          0., 3060., 0., 3.35380742e+04, 0., 48195., 7.57311328e+03, 0.,
          0., 3060., 0., 3.13743281e+04, 0. ]
      - [ 0., 0., 0., 0., 0., 0., 0., 0., 0., 0., 0., 0., 0., 0., 0., 0.,
          0., 0., 0., 0., 0., 0., 1.51462266e+04, 0., 16065.,
          7.57311328e+03, 0., 0., 5355., 0., 0., 0., 9945.,
          4.32749316e+03, 0., 0., 0., 0., 4.32749316e+03, 0., 8415.,
          5.40936670e+03, 0., 0., 765., 0., 3.24562012e+03, 0., 43605.,
          2.92105801e+04, 0., 0., 7650., 0., 7.57311328e+03, 0., 21420.,
          2.27193398e+04, 0., 0., 6885., 0., 1.51462266e+04, 0. ]
      - [ 0., 0., 0., 0., 0., 0., 1.08187329e+03, 0., 3060.,
          5.40936670e+03, 0., 0., 1530., 0., 3.24562012e+03, 0., 10710.,
          7.57311328e+03, 0., 0., 0., 0., 1.08187334e+04, 0., 37485.,
          1.51462266e+04, 0., 0., 0., 0., 0., 0., 13005., 6.49124023e+03,
          0., 0., 0., 0., 0., 0., 8415., 9.73686035e+03, 0., 0., 0., 0.,
          4.32749316e+03, 0., 32130., 2.59649609e+04, 0., 0., 3060., 0.,
          0., 0., 9945., 4.32749316e+03, 0., 0., 6120., 0.,
          3.24562012e+03, 0. ]
      - [ 3825., 0., 0., 0., 0., 0., 6.49124023e+03, 0., 9945.,
          1.08187329e+03, 0., 0., 4590., 0., 1.08187329e+03, 0., 0., 0.,
          0., 0., 0., 0., 8.65498633e+03, 0., 7650., 0., 0., 0., 0., 0.,
          0., 0., 4590., 9.73686035e+03, 0., 0., 13770., 0.,
          1.08187329e+03, 0., 1530., 2.16374658e+03, 0., 0., 9945., 0.,
          4.32749316e+03, 0., 15300., 0., 0., 0., 9180., 0.,
          3.13743281e+04, 0., 6885., 0., 0., 0., 7650., 0.,
          3.89474414e+04, 0. ]
      - [ 1530., 0., 0., 0., 0., 0., 2.16374658e+03, 0., 6885.,
          3.24562012e+03, 0., 0., 4590., 0., 5.40936670e+03, 0., 0., 0.,
          0., 0., 1530., 0., 1.08187334e+04, 0., 3825., 0., 0., 0., 0.,
          0., 0., 0., 3825., 7.57311328e+03, 0., 0., 12240., 0., 0., 0.,
          3825., 9.73686035e+03, 0., 0., 11475., 0., 9.73686035e+03, 0.,
          6885., 5.40936670e+03, 0., 0., 6120., 0., 2.48830879e+04, 0.,
          2295., 0., 0., 0., 0., 0., 2.92105801e+04, 0. ]
      - [ 1530., 0., 0., 0., 0., 0., 0., 0., 3825., 3.24562012e+03, 0.,
          0., 4590., 0., 5.40936670e+03, 0., 19890., 3.24562012e+03, 0.,
          0., 1530., 0., 1.19006064e+04, 0., 48195., 2.16374658e+03, 0.,
          0., 0., 0., 0., 0., 6120., 2.16374658e+03, 0., 0., 0., 0., 0.,
          0., 3060., 8.65498633e+03, 0., 0., 5355., 0., 3.24562012e+03,
          0., 24480., 1.62281006e+04, 0., 0., 1530., 0., 0., 0., 0., 0.,
          0., 0., 765., 0., 0., 0. ]
      - [ 1530., 0., 0., 0., 0., 0., 3.24562012e+03, 0., 7650.,
          5.40936670e+03, 0., 0., 1530., 0., 5.40936670e+03, 0., 0., 0.,
          0., 0., 0., 0., 1.19006064e+04, 0., 5355., 0., 0., 0., 0., 0.,
          0., 0., 9945., 9.73686035e+03, 0., 0., 6120., 0., 0., 0.,
          1530., 1.08187334e+04, 0., 0., 14535., 0., 1.08187329e+03, 0.,
          19125., 3.24562012e+03, 0., 0., 19890., 0., 4.21930625e+04, 0.,
          14535., 0., 0., 0., 3060., 0., 5.19299219e+04, 0. ]
      - [ 0., 0., 0., 0., 0., 0., 0., 0., 0., 0., 0., 0., 0., 0., 0., 0.,
          0., 0., 0., 0., 1530., 0., 1.29824805e+04, 0., 8415.,
          3.24562012e+03, 0., 0., 4590., 0., 5.40936670e+03, 0., 3060.,
          0., 0., 0., 0., 0., 1.08187329e+03, 0., 6885., 4.32749316e+03,
          0., 0., 4590., 0., 1.08187334e+04, 0., 39780., 2.05555938e+04,
          0., 0., 9180., 0., 1.51462266e+04, 0., 33660., 6.49124023e+03,
          0., 0., 4590., 0., 1.51462266e+04, 0. ]
      - [ 765., 0., 0., 0., 0., 0., 2.16374658e+03, 0., 12240.,
          2.16374658e+03, 0., 0., 0., 0., 0., 0., 0., 0., 0., 0., 3825.,
          0., 6.49124023e+03, 0., 0., 0., 0., 0., 0., 0., 0., 0., 5355.,
          9.73686035e+03, 0., 0., 3060., 0., 0., 0., 0., 7.57311328e+03,
          0., 0., 7650., 0., 1.08187334e+04, 0., 19890., 3.24562012e+03,
          0., 0., 5355., 0., 2.16374668e+04, 0., 15300., 0., 0., 0., 0.,
          0., 1.83918477e+04, 0. ]
      - [ 0., 0., 0., 0., 0., 0., 0., 0., 6885., 4.32749316e+03, 0., 0.,
          3060., 0., 6.49124023e+03, 0., 0., 0., 0., 0., 0., 0.,
          1.51462266e+04, 0., 22950., 0., 0., 0., 0., 0., 0., 0., 4590.,
          3.24562012e+03, 0., 0., 0., 0., 0., 0., 3060., 8.65498633e+03,
          0., 0., 9180., 0., 1.08187334e+04, 0., 33660., 1.51462266e+04,
          0., 0., 9180., 0., 3.24562012e+03, 0., 9945., 0., 0., 0., 0.,
          0., 2.16374658e+03, 0. ]
      - [ 6885., 0., 0., 0., 0., 0., 1.08187329e+03, 0., 12240.,
          3.24562012e+03, 0., 0., 0., 0., 3.24562012e+03, 0., 0., 0., 0.,
          0., 3060., 0., 9.73686035e+03, 0., 50490., 0., 0., 0., 0., 0.,
          0., 0., 8415., 0., 0., 0., 0., 0., 0., 0., 3825.,
          4.32749316e+03, 0., 0., 1530., 0., 6.49124023e+03, 0., 49725.,
          1.73099727e+04, 0., 0., 11475., 0., 0., 0., 765.,
          1.29824805e+04, 0., 0., 3060., 0., 7.57311328e+03, 0. ]
      - [ 0., 0., 0., 0., 0., 0., 0., 0., 0., 0., 0., 0., 0., 0., 0., 0.,
          0., 0., 0., 0., 5355., 0., 7.57311328e+03, 0., 9180.,
          7.57311328e+03, 0., 0., 3060., 0., 3.24562012e+03, 0., 8415.,
          5.40936670e+03, 0., 0., 0., 0., 0., 0., 765., 1.94737207e+04,
          0., 0., 0., 0., 3.24562012e+03, 0., 26775., 2.48830879e+04, 0.,
          0., 9945., 0., 4.54386797e+04, 0., 13770., 1.29824805e+04, 0.,
          0., 12240., 0., 4.00293125e+04, 0. ]
      - [ 0., 0., 0., 0., 0., 0., 0., 0., 1530., 2.16374658e+03, 0., 0.,
          1530., 0., 4.32749316e+03, 0., 51255., 7.57311328e+03, 0., 0.,
          2295., 0., 6.49124023e+03, 0., 57375., 4.32749316e+03, 0., 0.,
          1530., 0., 6.49124023e+03, 0., 12240., 3.24562012e+03, 0., 0.,
          0., 0., 0., 0., 6885., 1.08187334e+04, 0., 0., 765., 0., 0.,
          0., 3825., 1.40643535e+04, 0., 0., 13005., 0., 4.32749316e+03,
          0., 1530., 8.65498633e+03, 0., 0., 9180., 0., 1.08187329e+03,
          0. ]
      - [ 3825., 0., 0., 0., 0., 0., 4.32749316e+03, 0., 11475.,
          1.08187329e+03, 0., 0., 0., 0., 3.24562012e+03, 0., 0., 0., 0.,
          0., 0., 0., 1.08187334e+04, 0., 41310., 0., 0., 0., 0., 0., 0.,
          0., 9180., 0., 0., 0., 0., 0., 0., 0., 2295., 5.40936670e+03,
          0., 0., 3060., 0., 8.65498633e+03, 0., 60435., 1.29824805e+04,
          0., 0., 12240., 0., 2.16374658e+03, 0., 24480., 5.40936670e+03,
          0., 0., 6120., 0., 1.29824805e+04, 0. ]
      - [ 0., 0., 0., 0., 0., 0., 1.08187329e+03, 0., 9180.,
          3.24562012e+03, 0., 0., 6120., 0., 3.24562012e+03, 0., 0., 0.,
          0., 0., 0., 0., 1.40643535e+04, 0., 18360., 0., 0., 0., 0., 0.,
          0., 0., 15300., 0., 0., 0., 0., 0., 5.40936670e+03, 0., 10710.,
          1.08187329e+03, 0., 0., 0., 0., 1.40643535e+04, 0., 70380.,
          9.73686035e+03, 0., 0., 12240., 0., 5.84211602e+04, 0., 45900.,
          3.24562012e+03, 0., 0., 6120., 0., 5.73392891e+04, 0. ]
      - [ 765., 0., 0., 0., 0., 0., 0., 0., 0., 4.32749316e+03, 0., 0.,
          3060., 0., 3.24562012e+03, 0., 765., 0., 0., 0., 0., 0.,
          1.51462266e+04, 0., 18360., 1.08187329e+03, 0., 0., 765., 0.,
          1.08187329e+03, 0., 8415., 0., 0., 0., 0., 0., 0., 0., 6885.,
          5.40936670e+03, 0., 0., 4590., 0., 3.24562012e+03, 0., 54315.,
          2.48830879e+04, 0., 0., 15300., 0., 5.30117930e+04, 0., 39015.,
          1.51462266e+04, 0., 0., 5355., 0., 6.16667812e+04, 0. ]
      - [ 0., 0., 0., 0., 765., 0., 2.16374658e+03, 0., 4590.,
          2.16374658e+03, 0., 0., 6120., 0., 3.24562012e+03, 0., 0., 0.,
          0., 0., 2295., 0., 7.57311328e+03, 0., 0., 0., 0., 0., 0., 0.,
          0., 0., 6120., 1.29824805e+04, 0., 0., 6885., 0.,
          2.16374658e+03, 0., 6120., 7.57311328e+03, 0., 0., 13770., 0.,
          4.32749316e+03, 0., 17595., 2.16374658e+03, 0., 0., 7650., 0.,
          4.86843008e+04, 0., 12240., 0., 0., 0., 1530., 0.,
          4.65205547e+04, 0. ]
      - [ 0., 0., 0., 0., 0., 0., 0., 0., 9945., 3.24562012e+03, 0., 0.,
          6120., 0., 3.24562012e+03, 0., 0., 0., 0., 0., 0., 0.,
          1.51462266e+04, 0., 8415., 0., 0., 0., 0., 0., 0., 0., 15300.,
          1.08187329e+03, 0., 0., 0., 0., 1.08187329e+03, 0., 13005.,
          2.16374658e+03, 0., 0., 765., 0., 1.29824805e+04, 0., 27540.,
          2.27193398e+04, 0., 0., 15300., 0., 4.21930625e+04, 0., 13005.,
          1.51462266e+04, 0., 0., 12240., 0., 4.11111875e+04, 0. ]
      - [ 0., 0., 0., 0., 0., 0., 0., 0., 0., 4.32749316e+03, 0., 0.,
          3060., 0., 4.32749316e+03, 0., 765., 0., 0., 0., 1530., 0.,
          1.29824805e+04, 0., 10710., 1.08187329e+03, 0., 0., 0., 0.,
          1.08187329e+03, 0., 11475., 2.16374658e+03, 0., 0., 0., 0., 0.,
          0., 11475., 5.40936670e+03, 0., 0., 0., 0., 3.24562012e+03, 0.,
          50490., 1.83918477e+04, 0., 0., 4590., 0., 1.40643535e+04, 0.,
          35190., 1.08187334e+04, 0., 0., 6120., 0., 1.19006064e+04, 0. ]
      - [ 0., 0., 0., 0., 0., 0., 0., 0., 11475., 3.24562012e+03, 0., 0.,
          2295., 0., 5.40936670e+03, 0., 0., 0., 0., 0., 3825., 0.,
          9.73686035e+03, 0., 765., 0., 0., 0., 0., 0., 0., 0., 14535.,
          4.32749316e+03, 0., 0., 3060., 0., 0., 0., 10710.,
          6.49124023e+03, 0., 0., 0., 0., 1.08187334e+04, 0., 44370.,
          1.08187334e+04, 0., 0., 2295., 0., 1.51462266e+04, 0., 41310.,
          3.24562012e+03, 0., 0., 1530., 0., 1.40643535e+04, 0. ]
      - [ 1530., 0., 0., 0., 0., 0., 4.32749316e+03, 0., 8415.,
          3.24562012e+03, 0., 0., 2295., 0., 6.49124023e+03, 0., 0., 0.,
          0., 0., 0., 0., 1.08187334e+04, 0., 3825., 0., 0., 0., 0., 0.,
          0., 0., 6120., 1.08187334e+04, 0., 0., 3825., 0., 0., 0.,
          3060., 6.49124023e+03, 0., 0., 7650., 0., 2.16374658e+03, 0.,
          9180., 4.32749316e+03, 0., 0., 3060., 0., 9.73686035e+03, 0.,
          3060., 0., 0., 0., 9180., 0., 1.29824805e+04, 0. ]
      - [ 1530., 0., 0., 0., 0., 0., 0., 0., 8415., 3.24562012e+03, 0.,
          0., 4590., 0., 5.40936670e+03, 0., 0., 0., 0., 0., 1530., 0.,
          1.29824805e+04, 0., 3825., 0., 0., 0., 0., 0., 0., 0., 13005.,
          0., 0., 0., 0., 0., 2.16374658e+03, 0., 10710., 2.16374658e+03,
          0., 0., 0., 0., 8.65498633e+03, 0., 35190., 1.51462266e+04, 0.,
          0., 16830., 0., 3.24562012e+04, 0., 24480., 9.73686035e+03, 0.,
          0., 18360., 0., 3.02924531e+04, 0. ]
      - [ 0., 0., 0., 0., 765., 0., 9.73686035e+03, 0., 3060.,
          1.08187329e+03, 0., 0., 6120., 0., 5.40936670e+03, 0., 0., 0.,
          0., 0., 765., 0., 3.24562012e+03, 0., 0., 0., 0., 0., 0., 0.,
          0., 0., 11475., 5.40936670e+03, 0., 0., 0., 0., 2.16374658e+03,
          0., 6885., 7.57311328e+03, 0., 0., 7650., 0., 7.57311328e+03,
          0., 10710., 7.57311328e+03, 0., 0., 3060., 0., 2.38012129e+04,
          0., 9945., 0., 0., 0., 0., 0., 1.83918477e+04, 0. ]
      - [ 3825., 0., 0., 0., 0., 0., 3.24562012e+03, 0., 11475.,
          2.16374658e+03, 0., 0., 765., 0., 3.24562012e+03, 0., 3825.,
          2.16374658e+03, 0., 0., 0., 0., 5.40936670e+03, 0., 52785.,
          2.16374658e+03, 0., 0., 0., 0., 0., 0., 17595., 4.32749316e+03,
          0., 0., 0., 0., 0., 0., 8415., 9.73686035e+03, 0., 0., 2295.,
          0., 5.40936670e+03, 0., 37485., 1.94737207e+04, 0., 0., 7650.,
          0., 0., 0., 0., 0., 0., 0., 3825., 0., 2.16374658e+03, 0. ]
      - [ 1530., 0., 0., 0., 0., 0., 2.16374658e+03, 0., 8415.,
          3.24562012e+03, 0., 0., 1530., 0., 9.73686035e+03, 0., 0., 0.,
          0., 0., 0., 0., 1.29824805e+04, 0., 14535., 0., 0., 0., 0., 0.,
          0., 0., 11475., 1.08187329e+03, 0., 0., 0., 0., 2.16374658e+03,
          0., 8415., 6.49124023e+03, 0., 0., 765., 0., 8.65498633e+03,
          0., 18360., 1.19006064e+04, 0., 0., 3060., 0., 5.40936670e+03,
          0., 2295., 0., 0., 0., 1530., 0., 4.32749316e+03, 0. ]
      - [ 0., 0., 0., 0., 0., 0., 2.16374658e+03, 0., 6120.,
          4.32749316e+03, 0., 0., 3060., 0., 5.40936670e+03, 0., 0., 0.,
          0., 0., 1530., 0., 9.73686035e+03, 0., 1530., 0., 0., 0., 0.,
          0., 0., 0., 9945., 2.16374658e+03, 0., 0., 0., 0., 0., 0.,
          9945., 6.49124023e+03, 0., 0., 1530., 0., 1.40643535e+04, 0.,
          21420., 9.73686035e+03, 0., 0., 2295., 0., 3.13743281e+04, 0.,
          9945., 1.08187329e+03, 0., 0., 2295., 0., 1.83918477e+04, 0. ]
      - [ 3825., 2.16374658e+03, 0., 0., 1530., 0., 2.16374658e+03, 0.,
          6885., 7.57311328e+03, 0., 0., 4590., 0., 2.16374658e+03, 0.,
          13770., 0., 0., 0., 0., 0., 9.73686035e+03, 0., 21420., 0., 0.,
          0., 0., 0., 2.16374658e+03, 0., 3825., 6.49124023e+03, 0., 0.,
          15300., 0., 0., 0., 1530., 0., 0., 0., 3825., 0., 0., 0.,
          9945., 2.16374658e+03, 0., 0., 0., 0., 0., 0., 0., 0., 0., 0.,
          0., 0., 2.16374658e+03, 0. ]
      - [ 765., 0., 0., 0., 3060., 0., 3.24562012e+03, 0., 9945.,
          5.40936670e+03, 0., 0., 2295., 0., 1.08187329e+03, 0., 765.,
          0., 0., 0., 1530., 0., 6.49124023e+03, 0., 5355.,
          2.16374658e+03, 0., 0., 0., 0., 0., 0., 16830., 4.32749316e+03,
          0., 0., 765., 0., 1.08187329e+03, 0., 6885., 1.08187334e+04,
          0., 0., 13005., 0., 1.40643535e+04, 0., 39015., 1.62281006e+04,
          0., 0., 9945., 0., 2.59649609e+04, 0., 27540., 2.16374658e+03,
          0., 0., 2295., 0., 1.08187334e+04, 0. ]
      - [ 0., 0., 0., 0., 0., 0., 0., 0., 0., 0., 0., 0., 0., 0., 0., 0.,
          1530., 0., 0., 0., 1530., 0., 1.29824805e+04, 0., 7650.,
          7.57311328e+03, 0., 0., 3060., 0., 3.24562012e+03, 0., 11475.,
          2.16374658e+03, 0., 0., 0., 0., 2.16374658e+03, 0., 8415.,
          7.57311328e+03, 0., 0., 0., 0., 3.24562012e+03, 0., 56610.,
          1.73099727e+04, 0., 0., 1530., 0., 2.59649609e+04, 0., 44370.,
          1.29824805e+04, 0., 0., 1530., 0., 3.02924531e+04, 0. ]
      - [ 3825., 0., 0., 0., 0., 0., 0., 0., 3825., 4.32749316e+03, 0.,
          0., 3060., 0., 4.32749316e+03, 0., 765., 0., 0., 0., 0., 0.,
          1.51462266e+04, 0., 10710., 0., 0., 0., 0., 0., 2.16374658e+03,
          0., 9945., 4.32749316e+03, 0., 0., 0., 0., 4.32749316e+03, 0.,
          7650., 5.40936670e+03, 0., 0., 5355., 0., 2.16374658e+03, 0.,
          48960., 2.48830879e+04, 0., 0., 1530., 0., 6.49124023e+03, 0.,
          43605., 1.29824805e+04, 0., 0., 1530., 0., 1.40643535e+04, 0. ]
      - [ 0., 0., 0., 0., 0., 0., 2.16374658e+03, 0., 3825.,
          5.40936670e+03, 0., 0., 2295., 0., 6.49124023e+03, 0., 3825.,
          0., 0., 0., 0., 0., 1.19006064e+04, 0., 48960., 0., 0., 0., 0.,
          0., 0., 0., 4590., 1.40643535e+04, 0., 0., 8415., 0., 0., 0.,
          1530., 1.29824805e+04, 0., 0., 6885., 0., 1.08187329e+03, 0.,
          46665., 4.32749316e+03, 0., 0., 2295., 0., 0., 0., 0., 0., 0.,
          0., 0., 0., 5.40936670e+03, 0. ]
      - [ 0., 0., 0., 0., 0., 0., 0., 0., 0., 0., 0., 0., 0., 0., 0., 0.,
          1530., 1.08187329e+03, 0., 0., 6120., 0., 1.19006064e+04, 0.,
          27540., 1.19006064e+04, 0., 0., 3060., 0., 5.40936670e+03, 0.,
          6885., 0., 0., 0., 0., 0., 0., 0., 8415., 3.24562012e+03, 0.,
          0., 1530., 0., 5.40936670e+03, 0., 32895., 2.16374668e+04, 0.,
          0., 4590., 0., 0., 0., 6885., 8.65498633e+03, 0., 0., 3060.,
          0., 4.32749316e+03, 0. ]
      - [ 9180., 0., 0., 0., 0., 0., 0., 0., 15300., 0., 0., 0., 2295.,
          0., 4.32749316e+03, 0., 14535., 3.24562012e+03, 0., 0., 765.,
          0., 1.62281006e+04, 0., 23715., 1.08187329e+03, 0., 0., 0., 0.,
          4.32749316e+03, 0., 6120., 5.40936670e+03, 0., 0., 765., 0.,
          0., 0., 4590., 6.49124023e+03, 0., 0., 3825., 0.,
          3.24562012e+03, 0., 9180., 4.32749316e+03, 0., 0., 3060., 0.,
          1.08187329e+03, 0., 1530., 0., 0., 0., 0., 0., 8.65498633e+03,
          0. ]
      - [ 0., 0., 0., 0., 0., 0., 0., 0., 0., 0., 0., 0., 0., 0., 0., 0.,
          0., 0., 0., 0., 4590., 0., 8.65498633e+03, 0., 13770.,
          5.40936670e+03, 0., 0., 6120., 0., 1.08187329e+03, 0., 4590.,
          3.24562012e+03, 0., 0., 0., 0., 0., 0., 4590., 8.65498633e+03,
          0., 0., 3060., 0., 5.40936670e+03, 0., 56610., 2.48830879e+04,
          0., 0., 10710., 0., 3.13743281e+04, 0., 29070., 2.38012129e+04,
          0., 0., 6120., 0., 2.38012129e+04, 0. ]
      - [ 0., 0., 0., 0., 0., 0., 0., 0., 0., 0., 0., 0., 0., 0., 0., 0.,
          0., 0., 0., 0., 3060., 0., 1.08187334e+04, 0., 10710.,
